{"learner":{"attributes":{"best_iteration":"186","best_ntree_limit":"187","best_score":"0.746048942097451"},"feature_names":[],"feature_types":[],"gradient_booster":{"model":{"gbtree_model_param":{"num_parallel_tree":"1","num_trees":"202"},"iteration_indptr":[0,1,2,3,4,5,6,7,8,9,10,11,12,13,14,15,16,17,18,19,20,21,22,23,24,25,26,27,28,29,30,31,32,33,34,35,36,37,38,39,40,41,42,43,44,45,46,47,48,49,50,51,52,53,54,55,56,57,58,59,60,61,62,63,64,65,66,67,68,69,70,71,72,73,74,75,76,77,78,79,80,81,82,83,84,85,86,87,88,89,90,91,92,93,94,95,96,97,98,99,100,101,102,103,104,105,106,107,108,109,110,111,112,113,114,115,116,117,118,119,120,121,122,123,124,125,126,127,128,129,130,131,132,133,134,135,136,137,138,139,140,141,142,143,144,145,146,147,148,149,150,151,152,153,154,155,156,157,158,159,160,161,162,163,164,165,166,167,168,169,170,171,172,173,174,175,176,177,178,179,180,181,182,183,184,185,186,187,188,189,190,191,192,193,194,195,196,197,198,199,200,201,202],"tree_info":[0,0,0,0,0,0,0,0,0,0,0,0,0,0,0,0,0,0,0,0,0,0,0,0,0,0,0,0,0,0,0,0,0,0,0,0,0,0,0,0,0,0,0,0,0,0,0,0,0,0,0,0,0,0,0,0,0,0,0,0,0,0,0,0,0,0,0,0,0,0,0,0,0,0,0,0,0,0,0,0,0,0,0,0,0,0,0,0,0,0,0,0,0,0,0,0,0,0,0,0,0,0,0,0,0,0,0,0,0,0,0,0,0,0,0,0,0,0,0,0,0,0,0,0,0,0,0,0,0,0,0,0,0,0,0,0,0,0,0,0,0,0,0,0,0,0,0,0,0,0,0,0,0,0,0,0,0,0,0,0,0,0,0,0,0,0,0,0,0,0,0,0,0,0,0,0,0,0,0,0,0,0,0,0,0,0,0,0,0,0,0,0,0,0,0,0,0,0,0,0,0,0],"trees":[{"base_weights":[4.636234E-1,-2.2295806E-1,6.0446346E-1,-7.142336E-1,4.2293748E-1,5.648225E-1,1.61014E0,-5.102584E-1,-1.0420407E0,7.316783E-1,-3.1501524E-2,2.7260435E-1,6.4959633E-1,8.840379E-1,1.7504221E0,-5.714732E-1,3.587047E-1,-1.1481738E0,-2.034649E-1,8.444801E-1,-2.5084257E-1,-1.178347E0,1.3503774E-2,1.6601147E-1,5.543751E-1,8.310992E-2,6.7598516E-1,1.0673963E0,1.5983176E-1,1.5594578E0,1.8294153E0,-4.3651918E-1,-1.0822793E0,2.7954444E-1,1.4968017E0,7.462155E-1,-1.1838518E0,-4.382312E-1,2.4564064E-1,9.5065224E-1,-9.7082086E-2,1.296061E-1,-7.5097495E-1,-1.2445328E0,1.0819672E0,1.5995657E-1,-2.755315E-1,-1.1757985E-1,2.913268E-1,1.0986855E0,3.3823416E-1,4.746226E-1,-5.5628794E-1,6.606016E-1,1.6364272E0,8.256311E-1,1.5960801E0,-1.095823E0,5.0033355E-1,9.265823E-1,1.5961639E0,1.8513973E0,1.312102E0,-5.385442E-1,1.2242182E-2,-1.2176147E0,-2.8900257E-1,-5.4826254E-1,3.4800705E-1,1.5920178E0,-7.2727275E-1,1.7810651E0,-8.1152993E-1,-1.2632585E0,-4.906893E-1,-7.0273554E-1,5.80535E-2,-1.4966887E0,3.508631E-1,1.4855101E0,7.885687E-1,-3.7210152E-1,7.125201E-1,-8.6104786E-1,2.3093072E-1,5.5714285E-1,-8.605914E-1,-1.5028902E0,-6.708861E-1,1.5E0,-3.529412E-1,-2.5300726E-1,2.7380085E-1,2.0890938E-1,-4.768138E-1,-1.1107326E-2,-5.3927124E-1,-1.1761143E-1,3.4659788E-1,-9.3023255E-2,1.1656632E0,1.3563782E-1,5.531618E-1,3.2526907E-1,8.082656E-1,7.7456646E-2,-9.111813E-1,5.343322E-1,7.9308575E-1,7.5561094E-1,1.7267879E0,4.924744E-1,9.8310906E-1,2.524272E-1,1.6548042E0,-1.3636364E0,5.762712E-1,1.8436874E-1,1.120792E0,-7.407407E-1,1.0432433E0,1.6467056E0,1.178157E0,1.876675E0,1.661104E0,7.60274E-1,1.692677E0],"categories":[],"categories_nodes":[],"categories_segments":[],"categories_sizes":[],"default_left":[1,1,1,0,0,1,0,1,1,0,0,1,0,0,0,1,1,0,1,1,0,1,0,1,0,1,0,0,0,1,0,1,1,0,0,0,1,0,0,0,1,0,0,1,1,0,0,0,1,0,1,0,0,1,0,0,0,0,1,0,0,1,0,0,0,0,0,0,0,0,0,0,0,0,0,0,0,0,0,0,0,0,0,0,0,0,0,0,0,0,0,0,0,0,0,0,0,0,0,0,0,0,0,0,0,0,0,0,0,0,0,0,0,0,0,0,0,0,0,0,0,0,0,0,0,0,0],"id":0,"left_children":[1,3,5,7,9,11,13,15,17,19,21,23,25,27,29,31,33,35,37,39,41,43,45,47,49,51,53,55,57,59,61,63,65,67,69,71,73,75,77,79,81,83,85,87,89,91,93,95,97,99,101,103,105,107,109,111,113,115,117,119,121,123,125,-1,-1,-1,-1,-1,-1,-1,-1,-1,-1,-1,-1,-1,-1,-1,-1,-1,-1,-1,-1,-1,-1,-1,-1,-1,-1,-1,-1,-1,-1,-1,-1,-1,-1,-1,-1,-1,-1,-1,-1,-1,-1,-1,-1,-1,-1,-1,-1,-1,-1,-1,-1,-1,-1,-1,-1,-1,-1,-1,-1,-1,-1,-1,-1],"loss_changes":[4.4520547E4,2.486778E4,1.5229406E4,2.975791E3,4.7503257E3,9.104984E3,1.4741133E3,1.4598848E3,1.5192539E3,2.2346025E3,7.070133E2,2.4823638E3,4.2588906E3,3.1158533E2,1.8028516E2,1.7667188E3,1.6233281E2,1.0251465E3,2.024635E2,1.807958E3,3.9529785E2,7.872748E1,5.580172E2,2.131224E3,2.6684683E3,3.1749792E3,4.0209453E3,2.3811597E2,2.038496E2,8.1203125E1,9.516406E1,9.285122E2,5.7473975E2,9.598372E1,2.598758E1,4.5402344E2,8.181113E2,1.6553879E2,1.21432724E2,1.4077412E3,4.0850552E2,1.1869463E2,1.2917316E2,7.353931E1,9.676952E0,4.1140274E2,4.3238306E2,8.251845E2,9.400945E2,5.1471533E2,7.070177E2,3.9171826E2,1.0834142E3,4.481672E3,3.4020117E2,6.706433E1,4.587976E1,4.6350395E1,7.3260506E1,3.9188797E1,6.910449E1,3.6470703E1,7.289984E1,0E0,0E0,0E0,0E0,0E0,0E0,0E0,0E0,0E0,0E0,0E0,0E0,0E0,0E0,0E0,0E0,0E0,0E0,0E0,0E0,0E0,0E0,0E0,0E0,0E0,0E0,0E0,0E0,0E0,0E0,0E0,0E0,0E0,0E0,0E0,0E0,0E0,0E0,0E0,0E0,0E0,0E0,0E0,0E0,0E0,0E0,0E0,0E0,0E0,0E0,0E0,0E0,0E0,0E0,0E0,0E0,0E0,0E0,0E0,0E0,0E0,0E0,0E0,0E0],"parents":[2147483647,0,0,1,1,2,2,3,3,4,4,5,5,6,6,7,7,8,8,9,9,10,10,11,11,12,12,13,13,14,14,15,15,16,16,17,17,18,18,19,19,20,20,21,21,22,22,23,23,24,24,25,25,26,26,27,27,28,28,29,29,30,30,31,31,32,32,33,33,34,34,35,35,36,36,37,37,38,38,39,39,40,40,41,41,42,42,43,43,44,44,45,45,46,46,47,47,48,48,49,49,50,50,51,51,52,52,53,53,54,54,55,55,56,56,57,57,58,58,59,59,60,60,61,61,62,62],"right_children":[2,4,6,8,10,12,14,16,18,20,22,24,26,28,30,32,34,36,38,40,42,44,46,48,50,52,54,56,58,60,62,64,66,68,70,72,74,76,78,80,82,84,86,88,90,92,94,96,98,100,102,104,106,108,110,112,114,116,118,120,122,124,126,-1,-1,-1,-1,-1,-1,-1,-1,-1,-1,-1,-1,-1,-1,-1,-1,-1,-1,-1,-1,-1,-1,-1,-1,-1,-1,-1,-1,-1,-1,-1,-1,-1,-1,-1,-1,-1,-1,-1,-1,-1,-1,-1,-1,-1,-1,-1,-1,-1,-1,-1,-1,-1,-1,-1,-1,-1,-1,-1,-1,-1,-1,-1,-1],"split_conditions":[3.569E-1,6.75E1,6.6665E-1,3.61175E1,5.0035E-1,6.14485E0,1.11995E4,1.914E-1,-9.536743E-7,8.25E1,1.6235E-1,2.29E2,4.892E3,2.53095E1,8.0285E-1,2.5E0,5.0605E-1,1.485E0,6.569E-1,1.5E0,2.6500002E-2,4.25E1,6.768E-1,2.4845001E-1,3.4302E4,-9.536743E-7,6.6665E-1,9.9995E-1,4.5E0,1.5E0,2.031286E7,3.925E-2,2.5E0,2.35E-2,5.7774997E-1,8.452E-1,7.4300006E-2,9.07569E5,1.259E-1,7.95815E4,3.828E-1,3.148E-1,1.110905E5,9.506E-1,1.09901E1,7.59E2,2.5E0,1.3565E4,7.5E0,6.512595E5,7.555E-2,8.15E-2,8.6815E-1,8.65E1,7.537135E5,3.62E2,2.805E2,1.01345E0,7.5E0,2.739E-1,2.749E2,5.5E0,9.9995E-1,-6.46253E-2,1.4690618E-3,-1.4611375E-1,-3.4680307E-2,-6.57915E-2,4.1760847E-2,1.9104213E-1,-8.7272726E-2,2.137278E-1,-9.738359E-2,-1.5159102E-1,-5.8882717E-2,-8.4328264E-2,6.96642E-3,-1.7960264E-1,4.210357E-2,1.782612E-1,9.462824E-2,-4.4652183E-2,8.5502416E-2,-1.0332574E-1,2.7711686E-2,6.6857144E-2,-1.0327097E-1,-1.8034682E-1,-8.050633E-2,1.7999999E-1,-4.235294E-2,-3.036087E-2,3.2856103E-2,2.5069125E-2,-5.7217654E-2,-1.3328791E-3,-6.471255E-2,-1.4113371E-2,4.1591745E-2,-1.11627905E-2,1.3987958E-1,1.6276538E-2,6.637941E-2,3.9032288E-2,9.6991874E-2,9.294798E-3,-1.0934175E-1,6.411987E-2,9.517029E-2,9.067331E-2,2.0721455E-1,5.909693E-2,1.1797308E-1,3.0291263E-2,1.9857651E-1,-1.6363636E-1,6.915254E-2,2.212425E-2,1.3449503E-1,-8.888888E-2,1.2518919E-1,1.9760467E-1,1.4137883E-1,2.25201E-1,1.9933248E-1,9.123287E-2,2.0312124E-1],"split_indices":[236,391,108,495,387,160,486,291,368,361,236,391,371,506,110,325,114,296,7,325,461,334,405,160,470,368,132,108,202,335,442,154,223,467,408,104,292,442,234,472,289,235,445,62,180,483,251,491,492,358,132,459,236,121,441,377,436,172,227,114,285,222,108,0,0,0,0,0,0,0,0,0,0,0,0,0,0,0,0,0,0,0,0,0,0,0,0,0,0,0,0,0,0,0,0,0,0,0,0,0,0,0,0,0,0,0,0,0,0,0,0,0,0,0,0,0,0,0,0,0,0,0,0,0,0,0,0],"split_type":[0,0,0,0,0,0,0,0,0,0,0,0,0,0,0,0,0,0,0,0,0,0,0,0,0,0,0,0,0,0,0,0,0,0,0,0,0,0,0,0,0,0,0,0,0,0,0,0,0,0,0,0,0,0,0,0,0,0,0,0,0,0,0,0,0,0,0,0,0,0,0,0,0,0,0,0,0,0,0,0,0,0,0,0,0,0,0,0,0,0,0,0,0,0,0,0,0,0,0,0,0,0,0,0,0,0,0,0,0,0,0,0,0,0,0,0,0,0,0,0,0,0,0,0,0,0,0],"sum_hessian":[4.60405E5,7.8368E4,3.82037E5,4.451175E4,3.385625E4,3.6755075E5,1.448625E4,2.744E4,1.707175E4,2.01595E4,1.369675E4,8.265175E4,2.84899E5,2.34675E3,1.21395E4,2.56345E4,1.8055E3,1.51535E4,1.91825E3,1.80835E4,2.076E3,5.1625E2,1.31805E4,5.996775E4,2.2684E4,1.2681E4,2.72218E5,1.87225E3,4.745E2,3.55825E3,8.58125E3,2.027875E4,5.35575E3,1.68925E3,1.1625E2,2.7975E2,1.487375E4,1.25975E3,6.585E2,1.6251E4,1.8325E3,1.1795E3,8.965E2,5.02E2,1.425E1,8.74825E3,4.43225E3,1.8378E4,4.158975E4,6.44625E3,1.623775E4,7.86525E3,4.81575E3,2.6792825E5,4.28975E3,1.2865E3,5.8575E2,1.0075E2,3.7375E2,1.965E2,3.36175E3,8.229E3,3.5225E2,1.652225E4,3.7565E3,4.57475E3,7.81E2,1.285E2,1.56075E3,1.1175E2,4.5E0,1.68E2,1.1175E2,1.334425E4,1.5295E3,8.215E2,4.3825E2,3.675E1,6.2175E2,3.7775E3,1.24735E4,1.36825E3,4.6425E2,1.0875E2,1.07075E3,6.9E1,8.275E2,3.45E2,1.57E2,1.1E1,3.25E0,1.89025E3,6.858E3,1.301E3,3.13125E3,1.4674E4,3.704E3,4.95175E3,3.6638E4,3.43E2,6.10325E3,8.3595E3,7.87825E3,5.4345E3,2.43075E3,1.729E3,3.08675E3,1.3718425E5,1.30744E5,4E2,3.88975E3,4.1425E2,8.7225E2,2.475E1,5.61E2,8.7E1,1.375E1,2.485E2,1.2525E2,1.25E1,1.84E2,2.9965E3,3.6525E2,7.25625E3,9.7275E2,1.45E2,2.0725E2],"tree_param":{"num_deleted":"0","num_feature":"514","num_nodes":"127","size_leaf_vector":"0"}},{"base_weights":[4.0725696E-1,-2.3823467E-1,5.298551E-1,-6.2605596E-1,3.940969E-1,4.8779985E-1,1.3025864E0,-4.566977E-1,-9.5265234E-1,6.6301733E-1,-7.270393E-2,3.2597598E-1,6.489506E-1,6.737332E-1,1.5055344E0,-5.206553E-1,3.3943567E-1,-1.0042472E0,6.9216035E-2,3.4960517E-1,1.0099308E0,-1.3323072E0,-3.6201067E-2,3.0321676E-1,1.2387844E0,3.8785487E-1,7.285338E-1,9.878312E-1,3.459165E-1,1.3131367E0,1.6330963E0,-3.991731E-1,-9.878159E-1,2.6985258E-1,1.3711178E0,5.0126815E-1,-1.0289967E0,-3.353172E-1,5.362024E-1,-2.726211E-1,5.399017E-1,1.1353747E0,-2.0788345E-1,-1.4151179E0,9.8826873E-1,1.3661988E-1,-3.0777287E-1,-4.2535278E-1,3.2973996E-1,6.205588E-1,1.4054339E0,-4.3638217E-1,4.340817E-1,6.488323E-1,8.339378E-1,7.809453E-1,1.4948183E0,-9.445539E-3,6.441436E-1,8.1738245E-1,1.4037794E0,1.6518416E0,1.2230955E0,2.4451666E-1,-4.7272286E-1,-2.4053822E-1,-1.0739114E0,-1.5253803E-1,4.0107474E-1,1.4776608E0,-4.0159896E-1,1.6015571E0,-9.1985273E-1,-1.0761476E0,-2.5233164E-1,-5.5498606E-1,7.290672E-1,3.2468498E-2,8.323174E-1,-8.346041E-1,4.6373203E-2,6.857276E-1,2.2442588E-1,1.2568893E0,2.3803692E-1,-5.958707E-1,7.3607105E-1,-1.642053E0,-8.3275765E-1,1.6306409E0,1.0542802E-1,-2.4856178E-1,3.0600902E-1,-4.323213E-1,3.8712573E-1,-2.1115722E-1,-7.5355005E-1,1.5540911E-1,4.274305E-1,1.1561664E0,3.5516962E-1,1.6370413E0,1.242634E0,3.1165233E-1,-9.117285E-1,-1.2939534E-1,4.9719924E-1,6.340472E-1,1.3562754E0,8.495119E-1,1.413127E-1,4.638381E-1,9.3259776E-1,1.5931644E0,8.011939E-1,1.7139183E-1,-4.7778827E-1,3.8479674E-1,8.2002544E-1,9.922835E-1,4.617119E-1,1.4880991E0,1.1887997E0,1.6605605E0,1.1247295E0,-7.890938E-2,1.3218689E0],"categories":[],"categories_nodes":[],"categories_segments":[],"categories_sizes":[],"default_left":[1,1,1,0,0,1,0,1,1,0,0,1,0,0,1,1,1,0,1,0,1,1,0,1,0,0,1,0,1,0,0,0,0,0,0,0,0,1,0,0,0,0,1,1,0,0,1,0,0,0,0,1,0,1,0,0,1,0,0,0,0,1,0,0,0,0,0,0,0,0,0,0,0,0,0,0,0,0,0,0,0,0,0,0,0,0,0,0,0,0,0,0,0,0,0,0,0,0,0,0,0,0,0,0,0,0,0,0,0,0,0,0,0,0,0,0,0,0,0,0,0,0,0,0,0,0,0],"id":1,"left_children":[1,3,5,7,9,11,13,15,17,19,21,23,25,27,29,31,33,35,37,39,41,43,45,47,49,51,53,55,57,59,61,63,65,67,69,71,73,75,77,79,81,83,85,87,89,91,93,95,97,99,101,103,105,107,109,111,113,115,117,119,121,123,125,-1,-1,-1,-1,-1,-1,-1,-1,-1,-1,-1,-1,-1,-1,-1,-1,-1,-1,-1,-1,-1,-1,-1,-1,-1,-1,-1,-1,-1,-1,-1,-1,-1,-1,-1,-1,-1,-1,-1,-1,-1,-1,-1,-1,-1,-1,-1,-1,-1,-1,-1,-1,-1,-1,-1,-1,-1,-1,-1,-1,-1,-1,-1,-1],"loss_changes":[3.631671E4,1.7963418E4,1.2532453E4,2.510916E3,3.4957773E3,9.538086E3,2.539414E3,1.5227031E3,8.1746094E2,1.9207041E3,4.680015E2,3.7910469E3,3.8076406E3,4.999182E2,3.6717188E2,1.5703789E3,1.5929227E2,5.504238E2,1.4112532E2,1.0994491E3,1.2812783E3,5.6486572E1,4.6439767E2,3.4410205E3,4.5649707E2,1.6314072E3,1.1793594E3,2.5902026E2,2.521141E2,2.6867285E2,6.749219E1,1.0401316E3,3.6719873E2,1.1561589E2,2.7088806E1,3.75754E2,5.3145703E2,9.402162E1,5.1687653E1,3.8995544E2,3.269397E2,8.2868945E2,2.875564E2,3.5266663E1,5.7635336E0,3.946136E2,3.3320517E2,4.3955847E2,2.925912E3,1.3382666E2,1.2978223E2,8.088884E2,1.4418442E3,8.356992E2,6.5216797E2,8.438904E1,4.7688965E1,9.209652E1,5.8682983E1,5.742798E1,9.022363E1,3.7867188E1,5.1454712E1,0E0,0E0,0E0,0E0,0E0,0E0,0E0,0E0,0E0,0E0,0E0,0E0,0E0,0E0,0E0,0E0,0E0,0E0,0E0,0E0,0E0,0E0,0E0,0E0,0E0,0E0,0E0,0E0,0E0,0E0,0E0,0E0,0E0,0E0,0E0,0E0,0E0,0E0,0E0,0E0,0E0,0E0,0E0,0E0,0E0,0E0,0E0,0E0,0E0,0E0,0E0,0E0,0E0,0E0,0E0,0E0,0E0,0E0,0E0,0E0,0E0,0E0,0E0,0E0],"parents":[2147483647,0,0,1,1,2,2,3,3,4,4,5,5,6,6,7,7,8,8,9,9,10,10,11,11,12,12,13,13,14,14,15,15,16,16,17,17,18,18,19,19,20,20,21,21,22,22,23,23,24,24,25,25,26,26,27,27,28,28,29,29,30,30,31,31,32,32,33,33,34,34,35,35,36,36,37,37,38,38,39,39,40,40,41,41,42,42,43,43,44,44,45,45,46,46,47,47,48,48,49,49,50,50,51,51,52,52,53,53,54,54,55,55,56,56,57,57,58,58,59,59,60,60,61,61,62,62],"right_children":[2,4,6,8,10,12,14,16,18,20,22,24,26,28,30,32,34,36,38,40,42,44,46,48,50,52,54,56,58,60,62,64,66,68,70,72,74,76,78,80,82,84,86,88,90,92,94,96,98,100,102,104,106,108,110,112,114,116,118,120,122,124,126,-1,-1,-1,-1,-1,-1,-1,-1,-1,-1,-1,-1,-1,-1,-1,-1,-1,-1,-1,-1,-1,-1,-1,-1,-1,-1,-1,-1,-1,-1,-1,-1,-1,-1,-1,-1,-1,-1,-1,-1,-1,-1,-1,-1,-1,-1,-1,-1,-1,-1,-1,-1,-1,-1,-1,-1,-1,-1,-1,-1,-1,-1,-1,-1],"split_conditions":[3.3795E-1,7.55E1,5.0444996E-1,4.23925E1,5.0100005E-1,9.45E1,1.14075E4,1.6495E-1,2.7095002E-1,7.8325E-1,1.15600005E-1,5.3885E-1,3.0499998E-2,1.8582E1,8.0505E-1,2.5E0,5.0105E-1,9.95E-1,1.15E1,1.37825E1,1.5E0,4.3E1,6.6585E-1,2.4149999E-2,4.065E4,1.37495E1,8.5E0,8.0044997E-1,4.5E0,1.5E0,2.7803775E6,1.215E2,1.1E0,8.55E1,5.6285E-1,7.3864996E-1,2.73575E4,6.35E2,3.828E-1,1.1427E1,1.5198E1,1.96605E1,4.844E-1,9.8065E-1,1.98E2,6.9990003E-1,2.124E-1,3.8075E3,5.3035E3,1.75805E1,5.489E3,-9.536743E-7,1.00985E4,7.5005E-1,6.6703325E5,3.25E-2,4.435E0,2.5442001E1,4.6499997E-2,6.3275003E-1,5.9704995E-1,1.4579999E2,1.22E2,2.9341998E-2,-5.6726743E-2,-2.8864587E-2,-1.2886937E-1,-1.8304564E-2,4.8128966E-2,1.7731929E-1,-4.8191875E-2,1.9218685E-1,-1.10382326E-1,-1.2913771E-1,-3.0279797E-2,-6.6598326E-2,8.748806E-2,3.8962197E-3,9.987809E-2,-1.00152485E-1,5.564784E-3,8.228731E-2,2.6931105E-2,1.5082672E-1,2.8564429E-2,-7.150448E-2,8.8328525E-2,-1.9704635E-1,-9.993092E-2,1.956769E-1,1.26513615E-2,-2.9827414E-2,3.672108E-2,-5.1878557E-2,4.6455085E-2,-2.5338866E-2,-9.0426005E-2,1.8649094E-2,5.129166E-2,1.3873997E-1,4.2620353E-2,1.9644496E-1,1.4911608E-1,3.739828E-2,-1.0940742E-1,-1.552744E-2,5.9663907E-2,7.6085664E-2,1.6275305E-1,1.0194143E-1,1.6957523E-2,5.5660572E-2,1.1191173E-1,1.9117972E-1,9.614327E-2,2.0567019E-2,-5.733459E-2,4.6175607E-2,9.840305E-2,1.1907402E-1,5.5405427E-2,1.785719E-1,1.4265597E-1,1.9926725E-1,1.3496754E-1,-9.469125E-3,1.5862426E-1],"split_indices":[237,391,124,497,387,123,486,291,290,404,237,130,462,505,110,325,122,313,331,505,325,334,405,48,471,493,23,124,208,335,447,427,239,125,408,42,472,127,291,476,505,475,290,55,105,403,290,376,393,477,359,368,358,106,501,462,271,507,462,405,387,284,129,0,0,0,0,0,0,0,0,0,0,0,0,0,0,0,0,0,0,0,0,0,0,0,0,0,0,0,0,0,0,0,0,0,0,0,0,0,0,0,0,0,0,0,0,0,0,0,0,0,0,0,0,0,0,0,0,0,0,0,0,0,0,0,0],"split_type":[0,0,0,0,0,0,0,0,0,0,0,0,0,0,0,0,0,0,0,0,0,0,0,0,0,0,0,0,0,0,0,0,0,0,0,0,0,0,0,0,0,0,0,0,0,0,0,0,0,0,0,0,0,0,0,0,0,0,0,0,0,0,0,0,0,0,0,0,0,0,0,0,0,0,0,0,0,0,0,0,0,0,0,0,0,0,0,0,0,0,0,0,0,0,0,0,0,0,0,0,0,0,0,0,0,0,0,0,0,0,0,0,0,0,0,0,0,0,0,0,0,0,0,0,0,0,0],"sum_hessian":[4.5891212E5,7.3248805E4,3.856633E5,4.5402547E4,2.7846258E4,3.6575884E5,1.990448E4,2.9900094E4,1.5502453E4,1.7667643E4,1.0178614E4,1.8249978E5,1.8325906E5,4.8574707E3,1.504701E4,2.7677002E4,2.223092E3,1.475736E4,7.450929E2,9.283058E3,8.384585E3,2.856654E2,9.892949E3,1.7806147E5,4.4383115E3,4.281103E4,1.4044803E5,2.4796125E3,2.377858E3,6.003467E3,9.043543E3,2.1966586E4,5.7104155E3,2.0838086E3,1.392835E2,2.3836452E2,1.4518996E4,3.993942E2,3.4569867E2,2.1740327E3,7.109025E3,7.6016294E3,7.829558E2,2.761993E2,9.466091E0,6.04596E3,3.8469885E3,6.2540156E3,1.7180745E5,9.433722E2,3.4949392E3,2.2730723E3,4.0537957E4,7.997893E4,6.04691E4,1.7628059E3,7.168067E2,1.0854379E3,1.29242E3,9.295383E2,5.0739287E3,8.645251E3,3.982923E2,2.2523376E3,1.9714248E4,5.903332E2,5.120082E3,4.9388412E2,1.5899246E3,1.3154395E2,7.7395396E0,1.342758E2,1.040887E2,1.3687641E4,8.313548E2,3.3146472E2,6.7929474E1,1.283932E2,2.1730548E2,7.866133E2,1.3874194E3,4.860929E3,2.2480957E3,6.694659E3,9.0697015E2,5.551464E2,2.2780934E2,1.9744066E2,7.875865E1,4.988976E0,4.4771147E0,1.8465466E3,4.1994136E3,3.262602E3,5.843866E2,3.785246E3,2.4687695E3,6.170183E4,1.1010562E5,3.114494E2,6.319228E2,1.4388716E3,2.0560676E3,8.8333923E2,1.389733E3,4.0833267E3,3.6454633E4,7.83435E4,1.6354282E3,5.9139098E4,1.3300045E3,5.716135E2,1.1911924E3,6.266585E2,9.014818E1,7.8353284E2,3.019051E2,5.2357275E2,7.688473E2,6.219194E2,3.0761896E2,3.64023E3,1.4336985E3,8.502464E3,1.4278668E2,2.809904E1,3.7019327E2],"tree_param":{"num_deleted":"0","num_feature":"514","num_nodes":"127","size_leaf_vector":"0"}},{"base_weights":[3.5907435E-1,-2.0221005E-1,4.6745563E-1,-5.704729E-1,3.1877762E-1,4.3396762E-1,1.2582095E0,-6.2885886E-1,1.9669598E-1,5.758444E-1,-7.0533104E-2,2.9483935E-1,5.7969385E-1,7.6161385E-1,1.4211862E0,-4.5086968E-1,-8.785098E-1,3.3577105E-1,-3.6660358E-1,3.1028217E-1,8.892464E-1,-1.2310656E0,-3.7394017E-2,2.6467693E-1,1.1133822E0,3.274263E-1,6.575374E-1,5.3404397E-1,1.1179239E0,1.2046121E0,1.4851092E0,-6.976663E-2,-5.551458E-1,-9.579625E-1,-1.4652772E-1,-3.1094765E-2,4.569243E-1,-8.153685E-1,-5.6415524E-2,-3.710662E-1,4.264601E-1,1.0152718E0,-2.1960708E-1,-1.3427129E0,5.5439895E-1,-7.346813E-2,8.797167E-1,8.47085E-2,3.5250905E-1,2.3552664E-1,1.2685218E0,-8.537389E-1,3.5855597E-1,6.6853625E-1,1.272505E-1,6.725782E-1,6.2315762E-2,8.786206E-1,1.3126372E0,5.02074E-1,1.3056842E0,1.5039437E0,1.1145178E0,-3.2473803E-1,2.2528774E-1,-6.203895E-1,8.741498E-3,6.5355897E-1,-9.8659843E-1,-3.42654E-1,3.8874325E-1,-7.0818394E-1,2.556437E-1,2.6304406E-1,7.032356E-1,-9.4210273E-1,1.0286597E0,-2.8552422E-1,9.1170377E-1,-1.3480048E-1,-7.2456807E-1,-3.16932E-1,4.964222E-1,1.2441374E0,6.363042E-1,-5.097107E-1,6.142467E-1,1.4284292E0,-1.3817811E0,-1.4022799E0,1.2038418E0,1.2877454E-2,-4.8036125E-1,9.9486667E-1,-8.764262E-1,1.8733282E-1,-2.0232321E-1,4.4917223E-1,9.8981455E-2,9.7874063E-1,-4.2244114E-2,1.4038465E0,1.0250174E0,-1.0039147E0,5.899793E-1,-3.3042234E-1,4.132987E-1,6.183908E-1,7.753327E-1,-1.3485242E-2,7.2355556E-1,5.877865E-1,1.2913316E0,-7.482748E-1,4.1503966E-1,2.73502E-1,9.909975E-1,1.3304036E0,-1.8006717E-1,-4.3456283E-1,6.797047E-1,1.3188276E0,-5.730378E-1,1.5366926E0,1.3488176E0,3.8450533E-1,1.2450268E0],"categories":[],"categories_nodes":[],"categories_segments":[],"categories_sizes":[],"default_left":[1,1,1,1,0,1,0,0,0,0,0,1,0,0,0,0,1,0,1,0,1,1,1,0,0,0,1,0,0,1,0,1,0,0,0,0,1,1,0,0,0,1,1,0,0,0,1,0,1,0,0,1,0,1,0,1,1,1,1,0,1,1,0,0,0,0,0,0,0,0,0,0,0,0,0,0,0,0,0,0,0,0,0,0,0,0,0,0,0,0,0,0,0,0,0,0,0,0,0,0,0,0,0,0,0,0,0,0,0,0,0,0,0,0,0,0,0,0,0,0,0,0,0,0,0,0,0],"id":2,"left_children":[1,3,5,7,9,11,13,15,17,19,21,23,25,27,29,31,33,35,37,39,41,43,45,47,49,51,53,55,57,59,61,63,65,67,69,71,73,75,77,79,81,83,85,87,89,91,93,95,97,99,101,103,105,107,109,111,113,115,117,119,121,123,125,-1,-1,-1,-1,-1,-1,-1,-1,-1,-1,-1,-1,-1,-1,-1,-1,-1,-1,-1,-1,-1,-1,-1,-1,-1,-1,-1,-1,-1,-1,-1,-1,-1,-1,-1,-1,-1,-1,-1,-1,-1,-1,-1,-1,-1,-1,-1,-1,-1,-1,-1,-1,-1,-1,-1,-1,-1,-1,-1,-1,-1,-1,-1,-1],"loss_changes":[2.7841715E4,1.421178E4,1.015757E4,1.9439795E3,3.0700723E3,7.461297E3,1.2602559E3,1.7916094E3,2.406278E2,1.537458E3,4.691883E2,4.648049E3,3.529543E3,3.1183203E2,1.6064062E2,9.3565137E2,9.759922E2,1.09470276E2,8.463788E1,7.919712E2,1.1844424E3,6.8260315E1,3.9254642E2,2.8702725E3,9.109248E2,1.5588853E3,8.010703E2,1.5374371E2,6.87793E1,1.8957861E2,6.1523438E1,3.8070074E2,6.801382E2,6.993418E2,1.7278702E2,1.1905652E2,8.8224945E1,5.9058746E1,8.028544E1,1.2164986E2,4.446438E2,6.5920654E2,2.0971927E2,3.6515747E1,2.7916788E1,4.0105975E2,9.16788E1,1.7543616E3,2.9904844E3,2.0774039E2,1.8591895E2,2.3664563E2,1.5578433E3,7.201797E2,2.3434833E2,9.467169E1,1.5336249E2,4.572162E1,2.2131592E1,5.6626953E1,5.8573975E1,4.16875E1,4.161194E1,0E0,0E0,0E0,0E0,0E0,0E0,0E0,0E0,0E0,0E0,0E0,0E0,0E0,0E0,0E0,0E0,0E0,0E0,0E0,0E0,0E0,0E0,0E0,0E0,0E0,0E0,0E0,0E0,0E0,0E0,0E0,0E0,0E0,0E0,0E0,0E0,0E0,0E0,0E0,0E0,0E0,0E0,0E0,0E0,0E0,0E0,0E0,0E0,0E0,0E0,0E0,0E0,0E0,0E0,0E0,0E0,0E0,0E0,0E0,0E0,0E0,0E0,0E0,0E0],"parents":[2147483647,0,0,1,1,2,2,3,3,4,4,5,5,6,6,7,7,8,8,9,9,10,10,11,11,12,12,13,13,14,14,15,15,16,16,17,17,18,18,19,19,20,20,21,21,22,22,23,23,24,24,25,25,26,26,27,27,28,28,29,29,30,30,31,31,32,32,33,33,34,34,35,35,36,36,37,37,38,38,39,39,40,40,41,41,42,42,43,43,44,44,45,45,46,46,47,47,48,48,49,49,50,50,51,51,52,52,53,53,54,54,55,55,56,56,57,57,58,58,59,59,60,60,61,61,62,62],"right_children":[2,4,6,8,10,12,14,16,18,20,22,24,26,28,30,32,34,36,38,40,42,44,46,48,50,52,54,56,58,60,62,64,66,68,70,72,74,76,78,80,82,84,86,88,90,92,94,96,98,100,102,104,106,108,110,112,114,116,118,120,122,124,126,-1,-1,-1,-1,-1,-1,-1,-1,-1,-1,-1,-1,-1,-1,-1,-1,-1,-1,-1,-1,-1,-1,-1,-1,-1,-1,-1,-1,-1,-1,-1,-1,-1,-1,-1,-1,-1,-1,-1,-1,-1,-1,-1,-1,-1,-1,-1,-1,-1,-1,-1,-1,-1,-1,-1,-1,-1,-1,-1,-1,-1,-1,-1,-1],"split_conditions":[3.5855E-1,6.75E1,6.0315E-1,2.035E-1,5.011E-1,1.685E2,4.2655E3,3.49685E1,4.6149498E1,7.7415E-1,1.137E-1,5.0545E-1,3.0499998E-2,2.5579E4,7.5645E-1,1.5E0,-9.536743E-7,1.4535001E-1,4.5E0,2.42585E1,1.5E0,9.5E0,4.5E0,5.7905E3,1.652769E6,1.8237E1,3.8572E1,2.4685001E1,7.6664996E-1,1.5E0,2.031286E7,1.5E0,2.1145E3,1.485E0,5.6500003E-2,3.3325E1,6.1805E-1,1.15E1,6.569E-1,2.4418499E1,5.1605E-1,2.309E3,4.264E-1,2.9165E-1,7.2150004E-1,8.308E-1,5.95E1,3.98405E1,8.299E-1,1.51045E1,3.0617E1,2.82E-2,1.18815E1,6.5E0,9.5E-2,9.9995E-1,3.5E0,6.7544997E-1,5.195E2,5.4495E-1,6.75E1,5.5E0,1.5E0,-3.8968563E-2,2.7034529E-2,-7.444674E-2,1.0489797E-3,7.842708E-2,-1.1839181E-1,-4.1118477E-2,4.6649188E-2,-8.4982075E-2,3.0677242E-2,3.1565286E-2,8.438827E-2,-1.1305232E-1,1.2343916E-1,-3.4262907E-2,1.0940445E-1,-1.6176058E-2,-8.6948164E-2,-3.803184E-2,5.9570663E-2,1.4929649E-1,7.63565E-2,-6.1165284E-2,7.370961E-2,1.714115E-1,-1.6581373E-1,-1.6827358E-1,1.4446102E-1,1.5452944E-3,-5.764335E-2,1.19384E-1,-1.05171144E-1,2.2479938E-2,-2.4278784E-2,5.3900667E-2,1.1877774E-2,1.17448874E-1,-5.0692935E-3,1.6846158E-1,1.2300208E-1,-1.20469764E-1,7.079751E-2,-3.965068E-2,4.9595844E-2,7.4206896E-2,9.303992E-2,-1.618229E-3,8.682667E-2,7.053438E-2,1.549598E-1,-8.9792974E-2,4.980476E-2,3.282024E-2,1.1891969E-1,1.5964842E-1,-2.160806E-2,-5.2147537E-2,8.156457E-2,1.5825932E-1,-6.876454E-2,1.844031E-1,1.6185811E-1,4.6140637E-2,1.4940321E-1],"split_indices":[237,391,122,291,387,125,484,495,497,385,237,132,462,456,122,325,368,142,330,495,325,63,226,392,442,494,477,506,122,330,442,14,483,297,461,284,288,208,291,496,384,430,293,56,349,385,68,495,385,507,497,104,477,225,462,110,223,53,356,124,92,223,222,0,0,0,0,0,0,0,0,0,0,0,0,0,0,0,0,0,0,0,0,0,0,0,0,0,0,0,0,0,0,0,0,0,0,0,0,0,0,0,0,0,0,0,0,0,0,0,0,0,0,0,0,0,0,0,0,0,0,0,0,0,0,0,0],"split_type":[0,0,0,0,0,0,0,0,0,0,0,0,0,0,0,0,0,0,0,0,0,0,0,0,0,0,0,0,0,0,0,0,0,0,0,0,0,0,0,0,0,0,0,0,0,0,0,0,0,0,0,0,0,0,0,0,0,0,0,0,0,0,0,0,0,0,0,0,0,0,0,0,0,0,0,0,0,0,0,0,0,0,0,0,0,0,0,0,0,0,0,0,0,0,0,0,0,0,0,0,0,0,0,0,0,0,0,0,0,0,0,0,0,0,0,0,0,0,0,0,0,0,0,0,0,0,0],"sum_hessian":[4.5767412E5,7.40716E4,3.8360253E5,4.3396477E4,3.0675121E4,3.680187E5,1.5583844E4,4.0327504E4,3.0689756E3,1.8475219E4,1.2199901E4,1.8827302E5,1.7974569E5,3.852087E3,1.1731758E4,2.354433E4,1.6783174E4,2.461621E3,6.0735455E2,1.0001989E4,8.4732295E3,3.376939E2,1.1862208E4,1.8158319E5,6.6898237E3,4.2387105E4,1.3735858E5,2.3522432E3,1.4998438E3,2.6780916E3,9.053666E3,5.0584897E3,1.848584E4,1.5139549E4,1.6436244E3,6.112946E2,1.8503264E3,2.4756337E2,3.5979117E2,1.4566985E3,8.545291E3,7.608572E3,8.64658E2,3.1805362E2,1.9640287E1,1.1414157E4,4.4805045E2,5.9555555E4,1.2202763E5,1.00508374E3,5.6847397E3,1.0877495E3,4.1299355E4,1.3456722E5,2.7913567E3,1.8179368E3,5.3430634E2,6.753494E2,8.244943E2,3.3758093E2,2.3405107E3,8.612877E3,4.4078918E2,2.713509E3,2.344981E3,1.6568686E4,1.9171543E3,2.6394406E2,1.48756045E4,1.2031451E3,4.4047922E2,1.8142271E2,4.2987192E2,1.0365164E3,8.1381006E2,2.321009E2,1.5462457E1,2.9150952E2,6.828164E1,8.7396106E2,5.8273737E2,7.3473486E2,7.810556E3,4.742315E3,2.8662566E3,6.417703E2,2.228877E2,3.9272702E0,3.1412637E2,4.605467E0,1.5034821E1,9.416812E3,1.9973452E3,4.208865E2,2.7163948E1,4.3870566E4,1.5684985E4,8.834378E4,3.368385E4,2.7275812E2,7.323256E2,3.6509827E3,2.0337571E3,9.855383E2,1.022112E2,3.0395312E3,3.8259824E4,9.157546E4,4.299176E4,2.2591462E3,5.3221045E2,1.6005529E3,2.1738388E2,1.6166486E2,3.7264148E2,1.06313644E2,5.6903577E2,8.1490393E2,9.590389E0,5.3584812E1,2.8399612E2,2.3245464E3,1.5964262E1,7.104194E3,1.5086829E3,6.744978E1,3.733394E2],"tree_param":{"num_deleted":"0","num_feature":"514","num_nodes":"127","size_leaf_vector":"0"}},{"base_weights":[3.1986448E-1,-1.601838E-1,4.1864458E-1,-5.203363E-1,2.3875244E-1,3.876657E-1,1.1641406E0,-2.8858656E-1,-7.695188E-1,6.5785986E-1,4.9178053E-2,2.2407879E-1,4.8876685E-1,6.1368126E-1,1.3044915E0,7.015533E-2,-3.852915E-1,-8.279489E-1,-2.7930789E-2,1.1621209E0,4.827448E-1,-9.9689E-1,9.0277046E-2,1.9471265E-1,1.1446435E0,2.9549715E-1,5.492981E-1,4.097473E-1,1.0317336E0,1.0544779E0,1.373448E0,-2.4674475E-1,3.317603E-1,-4.8655E-1,2.1461084E-1,5.306265E-1,-8.5082656E-1,3.0738443E-1,-3.6165157E-1,1.2323513E0,-4.4587404E-1,-2.635109E-1,5.597417E-1,-1.1725761E0,-1.8568157E-1,2.2369148E-2,6.755125E-1,2.1989594E-1,-3.9128032E-1,8.098557E-1,1.3116287E0,-6.0488313E-1,3.3174998E-1,4.6558878E-1,6.471105E-1,2.7139324E-1,8.9819133E-1,6.575465E-1,1.2670745E0,6.6752464E-1,1.2003074E0,1.3932459E0,9.9388015E-1,-1.5946251E-1,-1.1167552E0,1.1176511E-1,5.9639007E-1,-3.7374982E-1,-8.928546E-1,2.5997756E-2,5.378174E-1,1.5726672E0,-9.2990303E-1,-9.529243E-1,-6.0717297E-1,-4.2829296E-1,4.887872E-1,-7.413575E-1,-1.3946805E-3,6.318214E-1,1.2652664E0,-1.5736607E0,6.711E-2,-3.490485E-1,9.908112E-1,6.0387784E-1,3.8833963E-3,-7.650488E-1,-1.3211188E0,2.5532168E-1,-9.3485385E-1,-5.8336213E-2,5.599594E-1,8.789353E-1,6.383391E-2,3.5375187E-1,9.7311616E-2,-2.4449326E-1,-6.746271E-1,2.7385086E-1,9.98936E-1,1.3258232E0,-2.6075786E-1,2.3262836E-1,-8.0973613E-1,-7.538282E-1,3.6208478E-1,4.5449078E-1,1.2612249E0,6.5694094E-1,5.1333573E-2,3.766787E-1,-4.018506E-1,4.0358698E-1,1.1249626E0,-4.2774013E-1,8.114145E-1,1.2991585E0,-5.1819867E-1,8.4769297E-1,2.035412E-1,1.2200927E0,-3.932442E-1,1.2856433E0,1.4416338E0,-7.910818E-3,1.099809E0],"categories":[],"categories_nodes":[],"categories_segments":[],"categories_sizes":[],"default_left":[1,1,1,0,0,1,0,0,1,0,0,1,0,1,0,1,1,0,0,1,0,1,0,0,0,0,0,0,0,1,0,0,0,1,1,0,0,0,0,0,1,1,1,0,0,1,0,0,0,0,0,1,0,1,1,0,0,1,1,0,0,0,0,0,0,0,0,0,0,0,0,0,0,0,0,0,0,0,0,0,0,0,0,0,0,0,0,0,0,0,0,0,0,0,0,0,0,0,0,0,0,0,0,0,0,0,0,0,0,0,0,0,0,0,0,0,0,0,0,0,0,0,0,0,0,0,0],"id":3,"left_children":[1,3,5,7,9,11,13,15,17,19,21,23,25,27,29,31,33,35,37,39,41,43,45,47,49,51,53,55,57,59,61,63,65,67,69,71,73,75,77,79,81,83,85,87,89,91,93,95,97,99,101,103,105,107,109,111,113,115,117,119,121,123,125,-1,-1,-1,-1,-1,-1,-1,-1,-1,-1,-1,-1,-1,-1,-1,-1,-1,-1,-1,-1,-1,-1,-1,-1,-1,-1,-1,-1,-1,-1,-1,-1,-1,-1,-1,-1,-1,-1,-1,-1,-1,-1,-1,-1,-1,-1,-1,-1,-1,-1,-1,-1,-1,-1,-1,-1,-1,-1,-1,-1,-1,-1,-1,-1],"loss_changes":[2.1568668E4,1.11528545E4,8.711477E3,2.3555996E3,2.9261292E3,5.9898984E3,1.1619004E3,7.333629E2,8.5175586E2,1.0123203E3,1.0903696E3,3.7396035E3,2.618496E3,2.6041614E2,2.052793E2,3.72245E2,1.01152734E3,5.668008E2,1.608845E2,3.3435815E2,4.8944482E2,1.3642584E2,9.697747E2,1.978519E3,2.3801123E2,1.7428389E3,1.395332E3,1.3883438E2,8.7446655E1,1.4572363E2,6.921875E1,1.5401924E2,1.4312164E2,6.5257764E2,1.4661227E2,4.616609E2,4.4521777E2,9.592214E1,9.856288E1,5.5188477E1,7.209422E1,8.586995E1,1.8938159E2,4.6685547E1,5.702218E1,9.487203E2,3.1563013E2,2.1091636E3,2.2960693E2,1.4422614E2,6.3993164E1,3.5477246E2,1.6903389E3,8.104707E2,4.603125E2,1.13931885E2,5.0449524E1,6.532982E1,3.5861877E1,5.9429047E1,5.9900146E1,4.4626953E1,4.980551E1,0E0,0E0,0E0,0E0,0E0,0E0,0E0,0E0,0E0,0E0,0E0,0E0,0E0,0E0,0E0,0E0,0E0,0E0,0E0,0E0,0E0,0E0,0E0,0E0,0E0,0E0,0E0,0E0,0E0,0E0,0E0,0E0,0E0,0E0,0E0,0E0,0E0,0E0,0E0,0E0,0E0,0E0,0E0,0E0,0E0,0E0,0E0,0E0,0E0,0E0,0E0,0E0,0E0,0E0,0E0,0E0,0E0,0E0,0E0,0E0,0E0,0E0,0E0,0E0],"parents":[2147483647,0,0,1,1,2,2,3,3,4,4,5,5,6,6,7,7,8,8,9,9,10,10,11,11,12,12,13,13,14,14,15,15,16,16,17,17,18,18,19,19,20,20,21,21,22,22,23,23,24,24,25,25,26,26,27,27,28,28,29,29,30,30,31,31,32,32,33,33,34,34,35,35,36,36,37,37,38,38,39,39,40,40,41,41,42,42,43,43,44,44,45,45,46,46,47,47,48,48,49,49,50,50,51,51,52,52,53,53,54,54,55,55,56,56,57,57,58,58,59,59,60,60,61,61,62,62],"right_children":[2,4,6,8,10,12,14,16,18,20,22,24,26,28,30,32,34,36,38,40,42,44,46,48,50,52,54,56,58,60,62,64,66,68,70,72,74,76,78,80,82,84,86,88,90,92,94,96,98,100,102,104,106,108,110,112,114,116,118,120,122,124,126,-1,-1,-1,-1,-1,-1,-1,-1,-1,-1,-1,-1,-1,-1,-1,-1,-1,-1,-1,-1,-1,-1,-1,-1,-1,-1,-1,-1,-1,-1,-1,-1,-1,-1,-1,-1,-1,-1,-1,-1,-1,-1,-1,-1,-1,-1,-1,-1,-1,-1,-1,-1,-1,-1,-1,-1,-1,-1,-1,-1,-1,-1,-1,-1],"split_conditions":[4.1724998E-1,1.8505E3,6.0295E-1,2.27355E1,2.8649998E-1,8.85E1,2.05244E5,1.5E0,2.9865003E-1,3.30955E4,1.3255E-1,6.007E-1,3.0499998E-2,9.95E1,7.5444996E-1,3.5E0,8.685E-2,4.47E0,2.4441E1,1.5E0,5.1605E-1,8.6449996E-2,1.1383935E6,4.01E2,8.0404997E-1,1.105E3,3.765E2,5.2500002E-2,8.1715E-1,1.5E0,2.031286E7,4.16865E1,1.725E2,2.125E1,9.5E0,8.452E-1,3.425E2,1.7711E0,1.90102E1,4.9655E-1,7.45E0,6.5E0,1.5E0,2.5E0,1.049E0,4.558E-1,1.705E1,6.2285E-1,1.0905E4,1.5E0,2.0992476E7,9.2145E-1,1.8237E1,7.549E-1,5.472E4,2.7989E1,4.1995E4,1.5E0,3.945E1,4.444E-1,1.18666245E2,2.863855E5,1.365E2,-1.9135501E-2,-1.3401063E-1,1.34118125E-2,7.1566805E-2,-4.4849977E-2,-1.07142545E-1,3.1197306E-3,6.453809E-2,1.8872006E-1,-1.1158836E-1,-1.14350915E-1,-7.2860755E-2,-5.1395155E-2,5.8654465E-2,-8.89629E-2,-1.6736165E-4,7.581857E-2,1.5183197E-1,-1.8883929E-1,8.0532E-3,-4.188582E-2,1.1889734E-1,7.246534E-2,4.6600754E-4,-9.180585E-2,-1.5853426E-1,3.0638602E-2,-1.1218246E-1,-7.0003453E-3,6.7195125E-2,1.0547223E-1,7.6600686E-3,4.2450223E-2,1.1677394E-2,-2.933919E-2,-8.095525E-2,3.28621E-2,1.1987232E-1,1.5909877E-1,-3.1290945E-2,2.7915403E-2,-9.7168334E-2,-9.0459384E-2,4.3450173E-2,5.453889E-2,1.5134698E-1,7.883291E-2,6.1600287E-3,4.5201443E-2,-4.8222072E-2,4.8430435E-2,1.349955E-1,-5.1328816E-2,9.736974E-2,1.5589902E-1,-6.218384E-2,1.0172316E-1,2.4424944E-2,1.4641112E-1,-4.7189303E-2,1.5427719E-1,1.7299606E-1,-9.4929815E-4,1.3197708E-1],"split_indices":[237,374,110,477,512,125,445,324,289,471,237,130,462,491,110,119,293,296,475,325,384,293,371,20,130,371,125,462,110,335,442,497,366,97,207,104,468,164,180,130,286,226,325,216,345,291,474,405,367,201,442,293,494,120,486,474,371,17,89,390,153,371,129,0,0,0,0,0,0,0,0,0,0,0,0,0,0,0,0,0,0,0,0,0,0,0,0,0,0,0,0,0,0,0,0,0,0,0,0,0,0,0,0,0,0,0,0,0,0,0,0,0,0,0,0,0,0,0,0,0,0,0,0,0,0,0,0],"split_type":[0,0,0,0,0,0,0,0,0,0,0,0,0,0,0,0,0,0,0,0,0,0,0,0,0,0,0,0,0,0,0,0,0,0,0,0,0,0,0,0,0,0,0,0,0,0,0,0,0,0,0,0,0,0,0,0,0,0,0,0,0,0,0,0,0,0,0,0,0,0,0,0,0,0,0,0,0,0,0,0,0,0,0,0,0,0,0,0,0,0,0,0,0,0,0,0,0,0,0,0,0,0,0,0,0,0,0,0,0,0,0,0,0,0,0,0,0,0,0,0,0,0,0,0,0,0,0],"sum_hessian":[4.5484838E5,7.762216E4,3.7722622E5,4.0793875E4,3.682828E4,3.6217756E5,1.5048681E4,2.1137402E4,1.9656473E4,1.1469425E4,2.5358855E4,1.3833983E5,2.2383772E5,3.058511E3,1.199017E4,4.488159E3,1.6649244E4,1.8220734E4,1.4357377E3,2.9548904E3,8.514535E3,9.5778064E2,2.4401074E4,1.3406436E5,4.2754595E3,5.3386473E4,1.7045125E5,2.0570315E3,1.0014795E3,2.595615E3,9.394555E3,2.0296099E3,2.4585493E3,1.4244996E4,2.4042478E3,3.01378E2,1.7919357E4,7.161974E2,7.1954034E2,2.831458E3,1.2343227E2,7.961179E2,7.718417E3,7.8691125E2,1.7086942E2,2.1865004E4,2.5360713E3,1.2854089E5,5.523472E3,1.424778E3,2.8506816E3,2.0657415E3,5.132073E4,9.1850195E4,7.8601055E4,1.6041923E3,4.5283932E2,3.8813953E2,6.1333997E2,7.1197955E2,1.8836354E3,8.926299E3,4.682562E2,1.8456333E3,1.8397658E2,1.3432693E3,1.1152802E3,1.1151096E4,3.0938997E3,1.5189293E3,8.853184E2,1.7584294E2,1.2553504E2,1.26258545E4,5.293502E3,1.41398E2,5.747994E2,3.49799E2,3.6974133E2,1.4817825E2,2.6832798E3,3.7944427E1,8.548784E1,7.459689E2,5.0149067E1,7.1505625E3,5.678541E2,2.1185019E2,5.7506104E2,1.0797103E2,6.289838E1,1.9011768E4,2.8532366E3,1.9028225E3,6.332488E2,6.1444594E4,6.70963E4,3.6397646E3,1.8837075E3,3.7217752E2,1.0526003E3,2.825333E3,2.5348518E1,4.0594772E2,1.6597938E3,1.3944464E3,4.9926285E4,9.0588195E4,1.2620066E3,7.732508E4,1.2759769E3,1.387628E3,2.165642E2,1.4322815E2,3.0961118E2,4.7974937E1,3.4016458E2,6.027794E2,1.0560551E1,5.122442E2,1.997353E2,1.8607668E3,2.2868587E1,2.7774697E3,6.148829E3,4.4866837E1,4.2338934E2],"tree_param":{"num_deleted":"0","num_feature":"514","num_nodes":"127","size_leaf_vector":"0"}},{"base_weights":[2.8404224E-1,-1.6948096E-1,3.706827E-1,-4.538606E-1,2.3583674E-1,3.4281266E-1,1.0638044E0,-2.0223602E-3,-5.2330285E-1,4.4743338E-1,-1.1221951E-1,1.2364615E-1,4.0327415E-1,5.461179E-1,1.1991552E0,-2.2674823E-1,3.6586434E-1,-8.3600575E-1,-3.2009467E-1,2.3209104E-1,7.7663994E-1,-8.054711E-1,-6.7699395E-2,2.2005154E-1,-1.452238E-1,1.3537869E-1,4.3697238E-1,4.26496E-1,9.676484E-1,9.8835105E-1,1.2688619E0,6.147558E-1,-2.9882637E-1,6.1297977E-1,2.4254264E-2,-8.7033856E-1,-2.336527E-1,-9.6908575E-1,-2.6511452E-1,-3.4255275E-1,3.1739306E-1,-2.589492E-1,8.689705E-1,-9.4584423E-1,3.888091E-1,-8.400779E-2,1.6771508E0,1.797066E-1,8.718379E-1,-2.5715238E-1,3.3096683E-1,-2.5407287E-1,3.275214E-1,3.7719688E-1,5.5871063E-1,5.119758E-1,-7.196575E-2,1.6924623E-1,1.0576423E0,8.3945614E-1,1.2918538E0,1.3414512E0,1.1669072E0,7.2801894E-1,-1.4208493E0,-2.2182707E-1,-1.0127093E0,-1.258018E-1,7.428941E-1,1.4769171E-1,-8.0909634E-1,1.4097546E-1,-8.8438624E-1,-3.6918026E-1,6.967505E-1,-1.1158242E0,-2.9204082E-1,-8.047251E-1,-1.9472247E-1,-1.039403E-1,-6.490113E-1,-1.1051406E0,3.4272915E-1,4.4106492E-1,-5.8463764E-1,5.5541235E-1,1.0576006E0,-1.0067872E0,9.6980274E-1,6.765355E-1,-1.7436082E0,1.8931377E-1,-1.6134116E-1,3.279787E-1,1.7306025E0,1.0555295E-1,4.8781508E-1,6.5214396E-1,1.213162E0,-5.356357E-1,-1.5305951E-1,3.8241708E-1,-3.7552598E-1,5.3210855E-1,-4.8809862E-1,-9.179188E-2,3.6975446E-1,3.5727647E-1,8.3601713E-1,5.9347236E-1,1.6982777E-1,4.2690018E-1,1.0144719E0,-1.3431679E0,1.384179E-1,-2.0214696E0,4.0391266E-1,1.2387319E0,8.57491E-1,1.0009716E0,4.8452565E-1,-1.7040838E-1,1.3036498E0,1.3467109E0,5.0579596E-1,1.169821E0,-1.2557403E0],"categories":[],"categories_nodes":[],"categories_segments":[],"categories_sizes":[],"default_left":[1,1,1,0,0,1,0,0,0,0,0,0,0,0,0,0,0,1,0,0,0,1,1,1,1,0,1,0,0,1,0,1,0,0,1,0,0,1,0,0,0,0,0,0,1,0,0,1,0,1,1,0,0,0,0,1,1,0,0,0,0,1,0,0,0,0,0,0,0,0,0,0,0,0,0,0,0,0,0,0,0,0,0,0,0,0,0,0,0,0,0,0,0,0,0,0,0,0,0,0,0,0,0,0,0,0,0,0,0,0,0,0,0,0,0,0,0,0,0,0,0,0,0,0,0,0,0],"id":4,"left_children":[1,3,5,7,9,11,13,15,17,19,21,23,25,27,29,31,33,35,37,39,41,43,45,47,49,51,53,55,57,59,61,63,65,67,69,71,73,75,77,79,81,83,85,87,89,91,93,95,97,99,101,103,105,107,109,111,113,115,117,119,121,123,125,-1,-1,-1,-1,-1,-1,-1,-1,-1,-1,-1,-1,-1,-1,-1,-1,-1,-1,-1,-1,-1,-1,-1,-1,-1,-1,-1,-1,-1,-1,-1,-1,-1,-1,-1,-1,-1,-1,-1,-1,-1,-1,-1,-1,-1,-1,-1,-1,-1,-1,-1,-1,-1,-1,-1,-1,-1,-1,-1,-1,-1,-1,-1,-1],"loss_changes":[1.7728137E4,8.34143E3,7.317133E3,1.3344053E3,2.19765E3,4.825535E3,1.0253203E3,4.685486E2,2.3421582E3,1.315419E3,3.4816922E2,2.0410494E3,2.5766328E3,1.5270801E2,1.6929883E2,2.1358142E2,1.8141159E2,3.000586E2,7.970513E2,5.5011884E2,7.018838E2,1.1449176E2,3.018541E2,1.5239741E3,1.1077758E3,2.3866392E3,1.8447305E3,1.00898834E2,4.799475E1,1.2945874E2,6.2961914E1,6.510808E1,1.7794861E2,1.19780334E2,9.302314E1,1.9526465E2,9.9153824E1,1.7301465E2,7.8236816E2,1.0602203E2,3.5252905E2,1.3738583E2,3.979287E2,7.212579E1,4.5543716E1,2.220876E2,6.5163574E0,1.2470192E3,2.5253516E2,4.8772375E2,1.4392929E2,1.9389468E3,3.7823926E2,1.5538691E3,1.1285391E3,8.595593E1,9.309329E1,3.6344067E1,2.0770325E1,1.10777954E2,1.6589844E1,2.1674805E1,2.7120117E1,0E0,0E0,0E0,0E0,0E0,0E0,0E0,0E0,0E0,0E0,0E0,0E0,0E0,0E0,0E0,0E0,0E0,0E0,0E0,0E0,0E0,0E0,0E0,0E0,0E0,0E0,0E0,0E0,0E0,0E0,0E0,0E0,0E0,0E0,0E0,0E0,0E0,0E0,0E0,0E0,0E0,0E0,0E0,0E0,0E0,0E0,0E0,0E0,0E0,0E0,0E0,0E0,0E0,0E0,0E0,0E0,0E0,0E0,0E0,0E0,0E0,0E0,0E0,0E0],"parents":[2147483647,0,0,1,1,2,2,3,3,4,4,5,5,6,6,7,7,8,8,9,9,10,10,11,11,12,12,13,13,14,14,15,15,16,16,17,17,18,18,19,19,20,20,21,21,22,22,23,23,24,24,25,25,26,26,27,27,28,28,29,29,30,30,31,31,32,32,33,33,34,34,35,35,36,36,37,37,38,38,39,39,40,40,41,41,42,42,43,43,44,44,45,45,46,46,47,47,48,48,49,49,50,50,51,51,52,52,53,53,54,54,55,55,56,56,57,57,58,58,59,59,60,60,61,61,62,62],"right_children":[2,4,6,8,10,12,14,16,18,20,22,24,26,28,30,32,34,36,38,40,42,44,46,48,50,52,54,56,58,60,62,64,66,68,70,72,74,76,78,80,82,84,86,88,90,92,94,96,98,100,102,104,106,108,110,112,114,116,118,120,122,124,126,-1,-1,-1,-1,-1,-1,-1,-1,-1,-1,-1,-1,-1,-1,-1,-1,-1,-1,-1,-1,-1,-1,-1,-1,-1,-1,-1,-1,-1,-1,-1,-1,-1,-1,-1,-1,-1,-1,-1,-1,-1,-1,-1,-1,-1,-1,-1,-1,-1,-1,-1,-1,-1,-1,-1,-1,-1,-1,-1,-1,-1,-1,-1,-1],"split_conditions":[3.5855E-1,6.75E1,6.0005E-1,4.22937E3,5.8739996E-1,4.45E1,1.1395E4,1.925E2,3.6545E3,7.8325E-1,1.921E-1,2.5074501E1,2.35E-2,8.365E3,7.507E-1,1.266E3,4.642E-1,4.7175003E1,1.513E-1,2.42585E1,6.85E1,3.9445E-1,7.612E-1,4.0745002E-1,3.8635E3,4.685E2,6.5E0,5.3385002E1,1.95E1,8.4115E-1,2.9671501E1,2.0385E1,7.7835E-1,1.9499999E-2,7.05E1,4.49E0,1.0205E3,6.125E-1,2.0449999E-1,2.3287498E1,1.8090001E-1,1.5E0,4.6E-2,7.2735E-1,8.7114E0,2.258E1,7.1E1,1.955E-2,8.0335E-1,3.775E-2,4.24965E0,1.71E3,1.635E2,6.0005E-1,8.4783E4,9.9995E-1,1.5E0,6.4419997E-1,2.0375E1,5.959E-1,6.4E1,3.0150002E1,3.7550002E-2,8.736227E-2,-1.7050192E-1,-2.6619248E-2,-1.2152511E-1,-1.50962155E-2,8.914729E-2,1.7723005E-2,-9.7091556E-2,1.6917055E-2,-1.06126346E-1,-4.430163E-2,8.361006E-2,-1.338989E-1,-3.5044897E-2,-9.656701E-2,-2.3366697E-2,-1.2472835E-2,-7.788136E-2,-1.3261686E-1,4.1127495E-2,5.292779E-2,-7.0156515E-2,6.664948E-2,1.2691207E-1,-1.2081446E-1,1.16376325E-1,8.118425E-2,-2.0923299E-1,2.2717651E-2,-1.9360939E-2,3.9357442E-2,2.076723E-1,1.2666354E-2,5.8537807E-2,7.825727E-2,1.4557943E-1,-6.4276285E-2,-1.8367141E-2,4.589005E-2,-4.5063116E-2,6.3853025E-2,-5.8571834E-2,-1.1015026E-2,4.4370536E-2,4.2873174E-2,1.0032205E-1,7.121668E-2,2.0379333E-2,5.122802E-2,1.2173662E-1,-1.6118014E-1,1.6610147E-2,-2.4257635E-1,4.8469517E-2,1.4864781E-1,1.0289892E-1,1.20116584E-1,5.8143076E-2,-2.0449005E-2,1.5643796E-1,1.6160531E-1,6.0695514E-2,1.4037852E-1,-1.5068883E-1],"split_indices":[237,391,122,500,386,127,486,366,471,404,237,493,462,454,122,439,407,286,236,495,202,290,122,130,431,367,30,497,492,106,496,310,387,461,329,295,367,248,510,495,235,222,458,406,178,494,361,401,130,160,157,438,376,114,438,106,186,122,282,387,360,92,401,0,0,0,0,0,0,0,0,0,0,0,0,0,0,0,0,0,0,0,0,0,0,0,0,0,0,0,0,0,0,0,0,0,0,0,0,0,0,0,0,0,0,0,0,0,0,0,0,0,0,0,0,0,0,0,0,0,0,0,0,0,0,0,0],"split_type":[0,0,0,0,0,0,0,0,0,0,0,0,0,0,0,0,0,0,0,0,0,0,0,0,0,0,0,0,0,0,0,0,0,0,0,0,0,0,0,0,0,0,0,0,0,0,0,0,0,0,0,0,0,0,0,0,0,0,0,0,0,0,0,0,0,0,0,0,0,0,0,0,0,0,0,0,0,0,0,0,0,0,0,0,0,0,0,0,0,0,0,0,0,0,0,0,0,0,0,0,0,0,0,0,0,0,0,0,0,0,0,0,0,0,0,0,0,0,0,0,0,0,0,0,0,0,0],"sum_hessian":[4.5117022E5,7.236605E4,3.7880416E5,4.252763E4,2.983842E4,3.6416288E5,1.4641282E4,5.6654434E3,3.6862184E4,1.855677E4,1.128165E4,7.87404E4,2.8542247E5,3.0356462E3,1.1605636E4,3.5172769E3,2.1481667E3,1.451813E4,2.2344055E4,1.121951E4,7.3372593E3,6.797489E2,1.0601902E4,5.795895E4,2.0781447E4,3.1891918E4,2.5353056E5,2.3661826E3,6.694637E2,2.8877625E3,8.717873E3,2.7690567E2,3.240371E3,1.2460204E3,9.0214624E2,1.3734829E4,7.833004E2,1.7437726E3,2.0600281E4,1.4498004E3,9.769709E3,6.0047406E2,6.736785E3,6.0844196E2,7.1306915E1,1.0504671E4,9.7231E1,5.458167E4,3.3772761E3,1.6826775E4,3.954672E3,1.05361045E4,2.1355812E4,1.7004144E5,8.3489125E4,2.0197876E3,3.4639502E2,6.8108025E1,6.0135565E2,1.939857E3,9.4790533E2,5.0851895E3,3.6326838E3,2.6291895E2,1.3986721E1,2.926076E3,3.1429532E2,1.8634828E2,1.0596721E3,7.864749E2,1.1567136E2,1.8804622E2,1.3546783E4,6.842343E2,9.906608E1,1.4326261E3,3.1114642E2,2.375992E3,1.822429E4,8.158829E2,6.339175E2,1.7021307E2,9.599496E3,1.9055437E2,4.099197E2,2.531928E3,4.2048574E3,5.901421E2,1.829989E1,6.343094E1,7.8759775E0,2.3163787E3,8.1882925E3,3.977248E0,9.325376E1,4.3994652E4,1.058702E4,2.0565098E3,1.3207665E3,4.577168E3,1.2249607E4,3.686651E3,2.6802124E2,2.4165894E3,8.1195146E3,1.9540222E3,1.9401791E4,1.6296772E5,7.0737227E3,7.663802E4,6.851097E3,1.7289204E3,2.9086722E2,4.8423157E1,2.9797186E2,5.853042E0,6.2254986E1,3.1298724E2,2.883684E2,1.3319274E3,6.0792957E2,7.477964E0,9.4042737E2,5.0527744E3,3.2415005E1,3.6288364E3,3.8475173E0],"tree_param":{"num_deleted":"0","num_feature":"514","num_nodes":"127","size_leaf_vector":"0"}},{"base_weights":[2.5362855E-1,-1.2926427E-1,3.3192894E-1,-4.2941597E-1,1.8551904E-1,3.0947962E-1,1.1003443E0,-2.9263645E-1,-6.904724E-1,5.61045E-1,3.4566727E-2,5.393777E-2,3.5488665E-1,6.119061E-1,1.183949E0,-2.325949E-2,-4.299064E-1,2.8037634E-1,-7.1418935E-1,9.8343444E-1,4.1328678E-1,-8.7576085E-1,7.017494E-2,-7.717531E-2,2.8814048E-1,-6.456919E-2,3.7434787E-1,7.859351E-1,-1.1289912E-2,1.2047184E0,8.1852585E-1,-1.3738386E-1,4.0776724E-1,-4.8195663E-1,3.108863E-1,1.3302336E0,-6.014552E-1,-7.785125E-1,-3.561001E-1,1.042698E0,-3.3689454E-1,5.1040226E-1,-1.9957978E-2,-1.1434958E0,-2.7151835E-1,6.2469165E-3,4.7442105E-1,-1.790253E-2,-4.4043052E-1,7.441693E-1,1.3877183E-1,-5.316253E-1,2.1903698E-1,3.18671E-1,4.91007E-1,5.744152E-1,1.0302058E0,-6.1898446E-1,4.9236873E-1,1.2251916E0,8.7081575E-1,4.1168037E-1,1.1625204E0,1.4056821E-1,-3.176338E-1,-5.244181E-1,5.3315353E-1,-9.4041896E-1,-4.0887323E-1,2.0005138E-1,1.2012476E0,-1.89109E-1,1.5543762E0,5.577237E-1,-8.2402015E-1,-8.7499064E-1,-5.714786E-1,-6.857229E-1,-8.31294E-2,1.1642749E0,8.495397E-1,-1.3484248E0,1.9509092E-1,-2.717508E-1,5.41466E-1,-7.65642E-1,4.017516E-2,-1.1688277E0,5.976319E-1,-7.711009E-1,1.2899148E-1,2.1418458E-1,-1.5966932E-1,4.0931585E-1,1.2020727E0,2.5990358E-1,-1.15795046E-1,-4.9141306E-1,8.7743455E-1,7.9405177E-1,-4.39118E-1,1.0066934E-1,1.0393869E0,-5.374452E-2,-8.712211E-1,5.39024E-1,9.800629E-2,3.482724E-1,8.324304E-2,5.045947E-1,-6.530939E-2,6.8313813E-1,-1.509169E-1,1.0964172E0,-5.851336E-1,-1.0677272E0,1.1590892E-1,1.1331904E0,1.7676057E-1,1.0157362E0,1.2473621E0,1.0807103E0,3.9976177E-1,-5.2457327E-1,9.127541E-1,1.2128083E0,8.004714E-3],"categories":[],"categories_nodes":[],"categories_segments":[],"categories_sizes":[],"default_left":[1,0,1,0,0,1,0,0,0,0,0,1,0,0,0,0,1,0,1,1,0,1,1,0,0,1,0,0,0,0,0,0,0,0,1,0,0,0,0,1,1,0,0,1,0,0,1,0,1,0,1,0,1,0,1,0,1,1,0,0,1,0,0,0,0,0,0,0,0,0,0,0,0,0,0,0,0,0,0,0,0,0,0,0,0,0,0,0,0,0,0,0,0,0,0,0,0,0,0,0,0,0,0,0,0,0,0,0,0,0,0,0,0,0,0,0,0,0,0,0,0,0,0,0,0,0,0],"id":5,"left_children":[1,3,5,7,9,11,13,15,17,19,21,23,25,27,29,31,33,35,37,39,41,43,45,47,49,51,53,55,57,59,61,63,65,67,69,71,73,75,77,79,81,83,85,87,89,91,93,95,97,99,101,103,105,107,109,111,113,115,117,119,121,123,125,-1,-1,-1,-1,-1,-1,-1,-1,-1,-1,-1,-1,-1,-1,-1,-1,-1,-1,-1,-1,-1,-1,-1,-1,-1,-1,-1,-1,-1,-1,-1,-1,-1,-1,-1,-1,-1,-1,-1,-1,-1,-1,-1,-1,-1,-1,-1,-1,-1,-1,-1,-1,-1,-1,-1,-1,-1,-1,-1,-1,-1,-1,-1,-1],"loss_changes":[1.3427154E4,7.1842905E3,6.413754E3,1.3896475E3,2.1038853E3,4.1919336E3,4.3025977E2,9.445034E2,3.0831738E2,6.6374585E2,8.582274E2,1.673844E3,2.5041523E3,1.6752289E2,6.7399414E1,4.242516E2,6.5257886E2,2.9688956E2,3.0060156E2,2.1608765E2,3.3178662E2,1.6092499E2,6.58431E2,7.524318E2,1.3325137E3,1.8018889E3,1.9039805E3,6.1792664E1,1.03803535E2,5.720215E1,6.777692E1,3.4168054E2,2.1131625E2,5.293479E2,1.0944034E2,5.0120483E1,4.5481556E1,2.2066943E2,1.7908559E2,6.0981934E1,6.440341E1,1.5665405E2,6.481946E1,3.1145935E1,6.159188E1,7.590585E2,1.6432294E2,8.171151E2,3.2980786E2,2.8524707E2,5.0564322E2,8.340045E2,3.2774332E2,1.3829785E3,7.1594727E2,5.1310455E1,6.0435547E1,5.0808025E1,3.7308945E1,3.60166E1,4.8598602E1,1.06028E2,1.5301178E1,0E0,0E0,0E0,0E0,0E0,0E0,0E0,0E0,0E0,0E0,0E0,0E0,0E0,0E0,0E0,0E0,0E0,0E0,0E0,0E0,0E0,0E0,0E0,0E0,0E0,0E0,0E0,0E0,0E0,0E0,0E0,0E0,0E0,0E0,0E0,0E0,0E0,0E0,0E0,0E0,0E0,0E0,0E0,0E0,0E0,0E0,0E0,0E0,0E0,0E0,0E0,0E0,0E0,0E0,0E0,0E0,0E0,0E0,0E0,0E0,0E0,0E0,0E0,0E0],"parents":[2147483647,0,0,1,1,2,2,3,3,4,4,5,5,6,6,7,7,8,8,9,9,10,10,11,11,12,12,13,13,14,14,15,15,16,16,17,17,18,18,19,19,20,20,21,21,22,22,23,23,24,24,25,25,26,26,27,27,28,28,29,29,30,30,31,31,32,32,33,33,34,34,35,35,36,36,37,37,38,38,39,39,40,40,41,41,42,42,43,43,44,44,45,45,46,46,47,47,48,48,49,49,50,50,51,51,52,52,53,53,54,54,55,55,56,56,57,57,58,58,59,59,60,60,61,61,62,62],"right_children":[2,4,6,8,10,12,14,16,18,20,22,24,26,28,30,32,34,36,38,40,42,44,46,48,50,52,54,56,58,60,62,64,66,68,70,72,74,76,78,80,82,84,86,88,90,92,94,96,98,100,102,104,106,108,110,112,114,116,118,120,122,124,126,-1,-1,-1,-1,-1,-1,-1,-1,-1,-1,-1,-1,-1,-1,-1,-1,-1,-1,-1,-1,-1,-1,-1,-1,-1,-1,-1,-1,-1,-1,-1,-1,-1,-1,-1,-1,-1,-1,-1,-1,-1,-1,-1,-1,-1,-1,-1,-1,-1,-1,-1,-1,-1,-1,-1,-1,-1,-1,-1,-1,-1,-1,-1,-1],"split_conditions":[4.1805E-1,5.744815E3,7.5005E-1,2.26815E1,2.855E-1,4.45E1,1.1471E4,7.55E1,9.985E0,7.80335E4,1.32E-1,2.005E2,4.9515E3,2.44825E1,2.7803775E6,5.95E-2,1.5E0,7.3864996E-1,6.217E-1,1.5E0,2.133647E6,7.599E-1,3.9755E-1,2.77455E4,3.4302E4,-9.536743E-7,4.423735E1,9.9995E-1,3.5E0,8.793834E5,9.9995E-1,3.866E3,2.2475E-1,1.75E-2,-9.536743E-7,2.5E0,2.361E-1,4.843E3,1.41615505E1,-9.536743E-7,1.9755E-1,9.04E-1,2.95315E4,1.75E1,4.275E-1,2.9908E1,5.119E-1,1.55205E1,4.146E-1,6.735E2,6.6665E-1,8.995E-1,8.842E3,5.33285E4,-9.536743E-7,9.8389995E-1,2.3725E1,1.5E0,8.079E-1,9.2115E3,4.5E0,1.5E0,1.155E2,1.6868185E-2,-3.8116056E-2,-6.2930174E-2,6.3978426E-2,-1.1285027E-1,-4.9064785E-2,2.4006166E-2,1.441497E-1,-2.2693079E-2,1.8652515E-1,6.6926844E-2,-9.8882414E-2,-1.0499887E-1,-6.857743E-2,-8.2286745E-2,-9.975527E-3,1.3971299E-1,1.0194476E-1,-1.6181096E-1,2.341091E-2,-3.2610096E-2,6.497592E-2,-9.1877036E-2,4.821019E-3,-1.4025931E-1,7.1715824E-2,-9.2532106E-2,1.5478978E-2,2.5702149E-2,-1.916032E-2,4.91179E-2,1.4424872E-1,3.1188428E-2,-1.3895405E-2,-5.8969565E-2,1.0529214E-1,9.528621E-2,-5.2694157E-2,1.208032E-2,1.2472642E-1,-6.4493422E-3,-1.0454653E-1,6.468288E-2,1.17607545E-2,4.1792687E-2,9.989165E-3,6.055136E-2,-7.837127E-3,8.197658E-2,-1.8110028E-2,1.3157006E-1,-7.021603E-2,-1.2812726E-1,1.390907E-2,1.3598284E-1,2.1211268E-2,1.2188835E-1,1.4968345E-1,1.2968524E-1,4.7971413E-2,-6.294879E-2,1.0953049E-1,1.4553699E-1,9.6056564E-4],"split_indices":[237,498,108,475,512,131,486,492,296,472,237,391,371,505,447,466,219,42,251,324,358,250,293,492,470,369,152,108,183,499,108,438,237,463,370,0,191,472,180,513,293,104,443,63,511,497,108,505,130,366,130,236,441,492,370,386,83,37,236,485,185,334,339,0,0,0,0,0,0,0,0,0,0,0,0,0,0,0,0,0,0,0,0,0,0,0,0,0,0,0,0,0,0,0,0,0,0,0,0,0,0,0,0,0,0,0,0,0,0,0,0,0,0,0,0,0,0,0,0,0,0,0,0,0,0,0,0],"split_type":[0,0,0,0,0,0,0,0,0,0,0,0,0,0,0,0,0,0,0,0,0,0,0,0,0,0,0,0,0,0,0,0,0,0,0,0,0,0,0,0,0,0,0,0,0,0,0,0,0,0,0,0,0,0,0,0,0,0,0,0,0,0,0,0,0,0,0,0,0,0,0,0,0,0,0,0,0,0,0,0,0,0,0,0,0,0,0,0,0,0,0,0,0,0,0,0,0,0,0,0,0,0,0,0,0,0,0,0,0,0,0,0,0,0,0,0,0,0,0,0,0,0,0,0,0,0,0],"sum_hessian":[4.478581E5,7.603627E4,3.718218E5,3.8922543E4,3.711373E4,3.6126872E5,1.0553093E4,2.5542021E4,1.3380523E4,1.0640503E4,2.6473227E4,5.4508383E4,3.0676034E5,1.5435603E3,9.009532E3,8.622499E3,1.6919521E4,3.1882108E2,1.3061703E4,2.7561033E3,7.8843994E3,9.956535E2,2.5477574E4,3.4945566E4,1.9562814E4,1.3601391E4,2.9315897E5,1.2064071E3,3.371532E2,8.522828E3,4.867044E2,6.817965E3,1.8045338E3,1.5809079E4,1.1104427E3,1.4531227E2,1.7350882E2,1.1071729E4,1.9899741E3,2.6379097E3,1.18193535E2,6.4405234E3,1.4438759E3,6.8932623E2,3.0632727E2,2.199955E4,3.4780232E3,3.004426E4,4.901308E3,4.8257163E3,1.4737098E4,5.1383833E3,8.463007E3,1.9845017E5,9.470879E4,6.4834314E2,5.58064E2,1.5269205E2,1.8446115E2,8.0279263E3,4.949017E2,2.2398822E2,2.6271616E2,2.6821736E3,4.135791E3,2.1356923E2,1.5909646E3,2.1719937E3,1.3637086E4,9.886031E2,1.2183966E2,1.870145E1,1.2661082E2,2.770544E1,1.4580338E2,7.5501274E3,3.521601E3,9.007597E2,1.0892145E3,1.6158439E3,1.0220659E3,4.0207428E1,7.798611E1,2.4572273E2,6.194801E3,1.0687199E2,1.3370039E3,6.7976495E2,9.561253E0,1.3589328E2,1.70434E2,9.763265E3,1.2236286E4,3.1938247E3,2.8419858E2,7.8279395E3,2.221632E4,4.7193633E3,1.819447E2,4.6308286E3,1.9488748E2,1.4139986E4,5.971114E2,2.1350664E3,3.0033167E3,2.3215977E3,6.1414097E3,1.7628462E5,2.2165547E4,9.245083E4,2.2579585E3,5.638792E2,8.446393E1,5.363988E2,2.1665253E1,9.452191E1,5.817014E1,6.0014717E1,1.2444644E2,7.7288983E2,7.255036E3,3.4145862E2,1.534431E2,7.806928E1,1.4591895E2,2.5170213E2,1.101403E1],"tree_param":{"num_deleted":"0","num_feature":"514","num_nodes":"127","size_leaf_vector":"0"}},{"base_weights":[2.2517452E-1,-1.18402064E-1,2.9605973E-1,-3.7855595E-1,1.6452678E-1,2.723277E-1,9.7169733E-1,-2.1175212E-1,-5.611108E-1,4.7701433E-1,3.025473E-2,6.674267E-2,3.2754874E-1,5.462953E-1,1.108606E0,8.165399E-2,-3.0041546E-1,-6.136523E-1,2.8343659E-2,9.1661173E-1,3.369543E-1,1.06342025E-2,1.3573309E0,-9.0410285E-2,2.5078896E-1,-4.6064162E-1,3.3975944E-1,3.5493463E-1,9.336765E-1,9.809008E-1,1.190565E0,1.9448523E-1,-3.4449336E-1,-3.8335264E-1,1.8046685E-1,-4.1370415E-3,-6.506449E-1,-1.01348534E-1,6.936391E-1,6.707297E-2,1.0105853E0,-1.9914263E-1,3.9528418E-1,-7.662289E-1,4.0348664E-2,1.3875064E0,-9.7950685E-1,-2.7015782E-3,-3.0148438E-1,9.4391964E-2,4.0725374E-1,-9.4624095E-2,-7.5911427E-1,3.7886313E-1,1.6656621E-1,8.816913E-1,2.5991052E-1,-3.71072E-1,9.6471405E-1,-1.0881087E-1,1.0088918E0,1.2093992E0,6.2040085E-1,-4.5852173E-2,3.7822297E-1,-1.5454082E-1,-7.198084E-1,-2.9187346E-1,-7.836169E-1,-8.5572936E-2,3.7131408E-1,1.3188295E-1,-1.0940403E0,-7.128272E-1,-3.0305687E-1,3.229807E-1,-3.460577E-1,-1.7298297E0,7.542232E-1,-1.5235063E0,2.449234E-1,1.3165302E0,9.8715115E-1,-3.4775773E-1,4.775581E-1,3.7646583E-1,1.4251872E0,-9.3764406E-1,-5.0911512E-2,-1.8447759E-2,4.0721196E-1,1.3743515E-1,1.4301697E0,4.494258E-2,-4.295152E-1,-4.143522E-1,5.5348407E-2,-1.8431276E-1,2.8875843E-1,5.9966373E-1,1.7358877E-1,-2.7766284E-1,3.0350766E-1,-5.0361526E-1,-1.090555E0,3.7068617E-1,1.0690506E0,8.4346436E-2,4.7246534E-1,9.186476E-1,-1.111393E0,1.3926253E-1,6.7974985E-1,8.649893E-1,-1.1706953E0,-6.6059756E-1,9.8023266E-1,2.827119E-1,-1.7919405E0,1.0800339E0,8.197783E-1,-1.4660671E0,1.2113891E0,-1.9572395E-1,9.5686287E-1],"categories":[],"categories_nodes":[],"categories_segments":[],"categories_sizes":[],"default_left":[1,0,1,0,0,1,0,0,1,0,1,1,1,0,0,1,1,0,0,0,0,0,1,0,0,0,0,0,0,1,0,1,0,1,1,1,0,0,0,0,0,1,1,1,0,0,0,0,1,1,0,1,1,1,1,1,0,1,0,0,0,0,0,0,0,0,0,0,0,0,0,0,0,0,0,0,0,0,0,0,0,0,0,0,0,0,0,0,0,0,0,0,0,0,0,0,0,0,0,0,0,0,0,0,0,0,0,0,0,0,0,0,0,0,0,0,0,0,0,0,0,0,0,0,0],"id":6,"left_children":[1,3,5,7,9,11,13,15,17,19,21,23,25,27,29,31,33,35,37,39,41,43,45,47,49,51,53,55,57,59,61,63,65,67,69,71,73,75,77,79,81,83,85,87,89,91,-1,93,95,97,99,101,103,105,107,109,111,113,115,117,119,121,123,-1,-1,-1,-1,-1,-1,-1,-1,-1,-1,-1,-1,-1,-1,-1,-1,-1,-1,-1,-1,-1,-1,-1,-1,-1,-1,-1,-1,-1,-1,-1,-1,-1,-1,-1,-1,-1,-1,-1,-1,-1,-1,-1,-1,-1,-1,-1,-1,-1,-1,-1,-1,-1,-1,-1,-1,-1,-1,-1,-1,-1,-1],"loss_changes":[1.0817541E4,5.591593E3,5.9035996E3,1.20502E3,1.526898E3,4.0382188E3,7.270615E2,5.380546E2,5.8522656E2,6.730928E2,6.6278076E2,2.178434E3,2.6987695E3,2.2531555E2,9.775195E1,2.308774E2,6.3352136E2,3.9117773E2,1.3358386E2,2.1086353E2,2.5950012E2,5.790978E2,2.751001E1,7.5213245E2,8.48855E2,4.672881E2,1.8699395E3,1.01836426E2,4.1091858E1,1.1297266E2,6.101758E1,1.6764563E2,7.155606E1,4.9579663E2,1.1868887E2,1.4746004E2,3.533081E2,1.3466586E2,3.838691E1,7.511854E1,1.57561035E1,8.210275E1,1.4447888E2,1.1327301E2,5.211865E2,1.9351868E1,0E0,5.836791E2,4.8035205E2,9.3992896E2,7.7954224E2,1.4020071E2,1.9898962E2,1.270873E3,1.2791569E3,2.3943542E1,8.747787E1,2.4826757E1,2.5435608E1,6.2165802E1,4.765088E1,3.1412598E1,5.125657E1,0E0,0E0,0E0,0E0,0E0,0E0,0E0,0E0,0E0,0E0,0E0,0E0,0E0,0E0,0E0,0E0,0E0,0E0,0E0,0E0,0E0,0E0,0E0,0E0,0E0,0E0,0E0,0E0,0E0,0E0,0E0,0E0,0E0,0E0,0E0,0E0,0E0,0E0,0E0,0E0,0E0,0E0,0E0,0E0,0E0,0E0,0E0,0E0,0E0,0E0,0E0,0E0,0E0,0E0,0E0,0E0,0E0,0E0,0E0,0E0,0E0,0E0],"parents":[2147483647,0,0,1,1,2,2,3,3,4,4,5,5,6,6,7,7,8,8,9,9,10,10,11,11,12,12,13,13,14,14,15,15,16,16,17,17,18,18,19,19,20,20,21,21,22,22,23,23,24,24,25,25,26,26,27,27,28,28,29,29,30,30,31,31,32,32,33,33,34,34,35,35,36,36,37,37,38,38,39,39,40,40,41,41,42,42,43,43,44,44,45,45,47,47,48,48,49,49,50,50,51,51,52,52,53,53,54,54,55,55,56,56,57,57,58,58,59,59,60,60,61,61,62,62],"right_children":[2,4,6,8,10,12,14,16,18,20,22,24,26,28,30,32,34,36,38,40,42,44,46,48,50,52,54,56,58,60,62,64,66,68,70,72,74,76,78,80,82,84,86,88,90,92,-1,94,96,98,100,102,104,106,108,110,112,114,116,118,120,122,124,-1,-1,-1,-1,-1,-1,-1,-1,-1,-1,-1,-1,-1,-1,-1,-1,-1,-1,-1,-1,-1,-1,-1,-1,-1,-1,-1,-1,-1,-1,-1,-1,-1,-1,-1,-1,-1,-1,-1,-1,-1,-1,-1,-1,-1,-1,-1,-1,-1,-1,-1,-1,-1,-1,-1,-1,-1,-1,-1,-1,-1,-1],"split_conditions":[4.2984998E-1,1.8505E3,6.0005E-1,2.27355E1,2.8649998E-1,7.3750004E-2,7.3435E3,1.5E0,2.6975E-1,3.30955E4,7.5090003E-1,4.95E-2,1.65E-3,6.7556E4,7.5045E-1,3.05E1,2.5025E1,4.22937E3,7.8115E-1,5.729E-1,5.1605E-1,1.3870001E-1,2.725E1,1.21195E4,7.55E1,1.0475E4,1.1095E4,2.25E1,6.2E1,1.5E0,1.971498E7,2.9909998E-1,1.15E1,2.6125E1,2.4225E-1,2.05E1,1.773E3,3.525E-1,1.995E0,3.0505002E-1,1.025E2,3.482E-1,8.108E-1,8.99E-2,2.0344985E6,2.879E3,-1.1754082E-1,4.0566498E1,3.9499998E-2,1.515E2,7.95E1,4.95E1,8.7385E-1,8.095E-1,1.35E1,2.905E2,5.15E-2,6.7945004E-1,3.5E0,8.8135004E-1,5.9105E-1,2.05E-1,1.5E0,-5.5022608E-3,4.5386754E-2,-1.8544897E-2,-8.637701E-2,-3.5024814E-2,-9.403402E-2,-1.0268752E-2,4.4557687E-2,1.5825953E-2,-1.3128483E-1,-8.553927E-2,-3.6366824E-2,3.875768E-2,-4.1526925E-2,-2.0757955E-1,9.0506785E-2,-1.8282075E-1,2.9390806E-2,1.5798363E-1,1.1845814E-1,-4.1730925E-2,5.730697E-2,4.51759E-2,1.7102246E-1,-1.1251728E-1,-6.1093816E-3,-2.213731E-3,4.8865434E-2,1.6492218E-2,1.7162035E-1,5.3931093E-3,-5.1541824E-2,-4.9722265E-2,6.641809E-3,-2.211753E-2,3.465101E-2,7.1959645E-2,2.0830652E-2,-3.331954E-2,3.642092E-2,-6.043383E-2,-1.3086659E-1,4.448234E-2,1.2828606E-1,1.0121572E-2,5.6695838E-2,1.1023771E-1,-1.3336715E-1,1.6711503E-2,8.156998E-2,1.0379871E-1,-1.4048344E-1,-7.9271704E-2,1.1762792E-1,3.3925425E-2,-2.1503285E-1,1.2960407E-1,9.83734E-2,-1.7592804E-1,1.4536668E-1,-2.3486873E-2,1.1482354E-1],"split_indices":[237,374,124,477,512,132,485,322,289,471,122,460,48,452,126,489,286,500,293,128,384,237,92,491,360,367,490,366,366,333,442,56,14,97,292,325,367,511,262,234,119,293,128,293,358,491,0,495,462,355,360,107,191,106,226,355,462,13,125,383,406,508,223,0,0,0,0,0,0,0,0,0,0,0,0,0,0,0,0,0,0,0,0,0,0,0,0,0,0,0,0,0,0,0,0,0,0,0,0,0,0,0,0,0,0,0,0,0,0,0,0,0,0,0,0,0,0,0,0,0,0,0,0,0,0],"split_type":[0,0,0,0,0,0,0,0,0,0,0,0,0,0,0,0,0,0,0,0,0,0,0,0,0,0,0,0,0,0,0,0,0,0,0,0,0,0,0,0,0,0,0,0,0,0,0,0,0,0,0,0,0,0,0,0,0,0,0,0,0,0,0,0,0,0,0,0,0,0,0,0,0,0,0,0,0,0,0,0,0,0,0,0,0,0,0,0,0,0,0,0,0,0,0,0,0,0,0,0,0,0,0,0,0,0,0,0,0,0,0,0,0,0,0,0,0,0,0,0,0,0,0,0,0],"sum_hessian":[4.441676E5,7.596567E4,3.6820194E5,3.9575523E4,3.639015E4,3.557089E5,1.24930205E4,2.0681031E4,1.8894494E4,1.0936166E4,2.5453984E4,7.531553E4,2.8039338E5,3.0429546E3,9.450066E3,4.7992754E3,1.5881755E4,1.7348115E4,1.54638E3,2.6411172E3,8.295049E3,2.5084129E4,3.698553E2,4.0626227E4,3.4689305E4,4.277043E3,2.7611634E5,2.0380862E3,1.0048685E3,3.6991604E3,5.750906E3,3.795012E3,1.00426355E3,1.3545741E4,2.336014E3,9.9270734E2,1.6355407E4,1.294817E3,2.5156297E2,2.6322516E2,2.377892E3,8.137394E2,7.481309E3,9.231907E2,2.4160938E4,3.655413E2,4.3139844E0,2.8700975E4,1.1925252E4,1.734921E4,1.7340094E4,1.9217341E3,2.3553088E3,2.2525658E5,5.0859758E4,3.1020685E2,1.7278793E3,2.3094007E1,9.817745E2,9.256714E1,3.6065933E3,5.5659253E3,1.8498041E2,1.6445784E3,2.1504336E3,6.677281E2,3.3653543E2,1.102723E4,2.5185107E3,9.7601166E2,1.3600023E3,8.8334485E2,1.09362495E2,1.3872599E4,2.482809E3,4.7347855E2,8.2133844E2,5.4634404E0,2.4609953E2,2.571154E1,2.3751363E2,1.6525266E2,2.2126394E3,6.676074E2,1.4613196E2,7.348405E3,1.3290439E2,7.4447705E2,1.7871361E2,2.0824404E4,3.3365344E3,1.2203027E1,3.5333826E2,2.5819682E4,2.8812932E3,9.059522E3,2.8657297E3,7.128134E3,1.0221076E4,9.508671E3,7.831423E3,1.3166942E3,6.0503986E2,1.331449E3,1.02385974E3,2.2262064E5,2.6359429E3,4.0086547E4,1.0773212E4,3.050889E2,5.117959E0,1.3432152E3,3.8466412E2,9.039289E0,1.4054719E1,8.892251E0,9.7288226E2,7.577313E1,1.6794004E1,2.6172913E3,9.89302E2,3.589645E0,5.562336E3,5.4121407E1,1.30859E2],"tree_param":{"num_deleted":"0","num_feature":"514","num_nodes":"125","size_leaf_vector":"0"}},{"base_weights":[2.0085993E-1,-5.584648E-2,2.7267823E-1,-3.2431486E-1,1.621666E-1,2.453654E-1,7.920346E-1,-1.529182E-1,-5.2522546E-1,1.119332E-1,9.196852E-1,1.6734566E-1,3.6573792E-1,4.194675E-1,1.0032185E0,-1.01355255E-1,-6.628567E-1,-5.821007E-1,1.3145046E-1,2.8509477E-1,-5.412103E-2,6.1731213E-1,1.1118895E0,2.0346901E-1,-1.4379795E-1,-1.08774886E-1,3.8430703E-1,2.783364E-1,7.032033E-1,7.116528E-1,1.0449017E0,-6.913623E-1,-6.229127E-2,-8.8449943E-1,-3.831387E-1,-9.8127976E-2,-6.191292E-1,4.1007665E-1,-1.451846E-1,4.6226662E-1,1.4515527E-1,-7.5125776E-2,6.0108566E-1,8.860849E-1,3.195201E-1,1.1251365E0,-2.0107834E0,1.9049248E-1,8.7109685E-1,-3.0609107E-1,7.472492E-2,9.617671E-2,-9.171358E-1,-1.4834501E-1,3.978363E-1,7.804696E-4,4.271249E-1,6.022378E-1,1.0088235E0,4.4564262E-1,9.0348315E-1,1.1047372E0,9.07876E-1,-1.4646524E-1,-8.5188544E-1,1.9327943E-1,-1.6274413E-1,-9.312361E-1,4.6099496E-1,-5.142987E-1,1.7684232E-1,-5.46271E-1,1.3808309E-1,-7.07852E-1,-3.9370564E-1,4.8617813E-1,-6.105707E-1,3.58065E-1,-3.7139082E-1,3.5149482E-1,7.811138E-1,-8.5273236E-1,1.7261489E-1,-6.610263E-1,-5.545232E-2,-1.0837471E0,6.3374853E-1,9.158155E-1,-1.4720814E0,-6.803518E-2,6.63348E-1,1.145328E0,3.6667013E-1,-2.4116843E0,-9.7679806E-1,1.0090157E-1,2.7943256E-1,1.0329083E0,3.253012E-1,-7.078365E-1,-2.1280976E-1,2.8249329E-2,9.901993E-1,5.5307865E-1,-5.145873E-3,-9.8684883E-1,5.881919E-1,-4.2541924E-1,9.0267636E-2,4.0942088E-1,-2.1926361E-1,5.7411534E-1,-2.0287265E-1,2.4873842E-1,5.7910055E-1,-3.5709894E-1,6.541405E-1,1.0538799E0,4.6059403E-1,7.892298E-1,2.2320394E-1,1.0066803E0,6.172383E-1,1.1192796E0,7.546377E-1,9.218904E-1,-2.3835216E-1],"categories":[],"categories_nodes":[],"categories_segments":[],"categories_sizes":[],"default_left":[1,1,1,0,1,1,1,1,1,0,0,0,0,1,0,0,0,0,0,0,0,0,0,1,0,0,0,0,0,1,0,0,0,1,1,0,0,1,1,0,0,0,0,1,1,0,0,1,0,0,1,1,0,0,1,0,1,0,1,1,0,1,1,0,0,0,0,0,0,0,0,0,0,0,0,0,0,0,0,0,0,0,0,0,0,0,0,0,0,0,0,0,0,0,0,0,0,0,0,0,0,0,0,0,0,0,0,0,0,0,0,0,0,0,0,0,0,0,0,0,0,0,0,0,0,0,0],"id":7,"left_children":[1,3,5,7,9,11,13,15,17,19,21,23,25,27,29,31,33,35,37,39,41,43,45,47,49,51,53,55,57,59,61,63,65,67,69,71,73,75,77,79,81,83,85,87,89,91,93,95,97,99,101,103,105,107,109,111,113,115,117,119,121,123,125,-1,-1,-1,-1,-1,-1,-1,-1,-1,-1,-1,-1,-1,-1,-1,-1,-1,-1,-1,-1,-1,-1,-1,-1,-1,-1,-1,-1,-1,-1,-1,-1,-1,-1,-1,-1,-1,-1,-1,-1,-1,-1,-1,-1,-1,-1,-1,-1,-1,-1,-1,-1,-1,-1,-1,-1,-1,-1,-1,-1,-1,-1,-1,-1],"loss_changes":[8.122965E3,5.6375776E3,4.8834375E3,1.4863262E3,2.0225946E3,3.0716855E3,1.352919E3,6.124461E2,7.422383E2,1.4334297E3,1.9142236E2,2.2305654E3,1.1334062E3,2.4905225E2,1.3266602E2,4.875808E2,1.322735E2,3.2766602E2,1.2220436E2,6.0497E2,3.5027716E2,1.0271469E2,8.580884E1,1.5402979E3,7.3216296E2,8.0274426E2,8.9208594E2,1.7173062E2,6.3171997E1,6.982172E1,7.772266E1,1.1478247E2,5.0948685E2,7.54259E1,6.967305E1,1.377855E2,3.3947656E2,6.1640305E1,9.0739944E1,3.800625E2,3.7378635E2,2.841974E2,4.419461E1,4.8729614E1,8.160024E1,3.0389648E1,1.3296013E0,1.3898071E3,2.9904614E2,4.4379688E2,3.74335E2,1.7896689E2,1.03421875E2,2.0280234E2,8.630742E2,1.6968163E2,7.32489E1,7.7717285E1,1.2156494E1,4.4042595E1,2.2968872E1,3.3159668E1,4.719165E1,0E0,0E0,0E0,0E0,0E0,0E0,0E0,0E0,0E0,0E0,0E0,0E0,0E0,0E0,0E0,0E0,0E0,0E0,0E0,0E0,0E0,0E0,0E0,0E0,0E0,0E0,0E0,0E0,0E0,0E0,0E0,0E0,0E0,0E0,0E0,0E0,0E0,0E0,0E0,0E0,0E0,0E0,0E0,0E0,0E0,0E0,0E0,0E0,0E0,0E0,0E0,0E0,0E0,0E0,0E0,0E0,0E0,0E0,0E0,0E0,0E0,0E0,0E0,0E0],"parents":[2147483647,0,0,1,1,2,2,3,3,4,4,5,5,6,6,7,7,8,8,9,9,10,10,11,11,12,12,13,13,14,14,15,15,16,16,17,17,18,18,19,19,20,20,21,21,22,22,23,23,24,24,25,25,26,26,27,27,28,28,29,29,30,30,31,31,32,32,33,33,34,34,35,35,36,36,37,37,38,38,39,39,40,40,41,41,42,42,43,43,44,44,45,45,46,46,47,47,48,48,49,49,50,50,51,51,52,52,53,53,54,54,55,55,56,56,57,57,58,58,59,59,60,60,61,61,62,62],"right_children":[2,4,6,8,10,12,14,16,18,20,22,24,26,28,30,32,34,36,38,40,42,44,46,48,50,52,54,56,58,60,62,64,66,68,70,72,74,76,78,80,82,84,86,88,90,92,94,96,98,100,102,104,106,108,110,112,114,116,118,120,122,124,126,-1,-1,-1,-1,-1,-1,-1,-1,-1,-1,-1,-1,-1,-1,-1,-1,-1,-1,-1,-1,-1,-1,-1,-1,-1,-1,-1,-1,-1,-1,-1,-1,-1,-1,-1,-1,-1,-1,-1,-1,-1,-1,-1,-1,-1,-1,-1,-1,-1,-1,-1,-1,-1,-1,-1,-1,-1,-1,-1,-1,-1,-1,-1,-1],"split_conditions":[4.513E-1,5.4905E4,5.1395E-1,2.2594501E1,5.3755E-1,3.9625603E1,4.2835E3,6.225E2,8.5E0,5.7985E-1,7.6985E-1,3.9295E4,1.4775E1,3.0207E4,7.5380003E-1,1.3745001E-1,1.5465E3,4.22937E3,3.615E-1,9.2E1,9.6790004E-1,4.1435E-1,2.0992476E7,5.1025E-1,3.85E-2,1.030945E4,1.2823E1,1.05E1,9.9995E-1,1.5E0,4.867E-1,1.045E2,1.5357001E0,9.6665E-1,6.2020004E-1,7.2365E-1,3.435E2,6.289E-1,8.375E-1,1.7191E1,2.2170001E-1,1.9885E-1,1.45E0,6.473395E1,5.823E-1,3.8099E1,1.5E0,4.95E1,5.2820003E-1,4.9595E3,4.2715E-1,1.35E1,1.5559999E1,7.78072E1,-9.536743E-7,1.59335E1,5.35E-2,6.115E-1,9.985E0,7.434E-1,5.363E-1,1.0975E1,1.9985E1,-1.7575828E-2,-1.0222625E-1,2.319353E-2,-1.9529296E-2,-1.1174833E-1,5.5319395E-2,-6.171584E-2,2.1221077E-2,-6.5552525E-2,1.656997E-2,-8.494224E-2,-4.7244675E-2,5.8341373E-2,-7.326849E-2,4.29678E-2,-4.4566896E-2,4.2179376E-2,9.373365E-2,-1.0232788E-1,2.0713786E-2,-7.932316E-2,-6.6542784E-3,-1.3004966E-1,7.604982E-2,1.0989785E-1,-1.7664976E-1,-8.164221E-3,7.960176E-2,1.3743936E-1,4.4000413E-2,-2.894021E-1,-1.1721577E-1,1.2108188E-2,3.3531908E-2,1.23949E-1,3.9036144E-2,-8.494038E-2,-2.553717E-2,3.3899194E-3,1.18823916E-1,6.636944E-2,-6.1750476E-4,-1.1842186E-1,7.058303E-2,-5.105031E-2,1.0832116E-2,4.9130503E-2,-2.6311632E-2,6.889384E-2,-2.4344718E-2,2.9848611E-2,6.9492064E-2,-4.2851873E-2,7.849686E-2,1.2646557E-1,5.5271283E-2,9.470758E-2,2.6784472E-2,1.2080163E-1,7.406859E-2,1.3431355E-1,9.0556525E-2,1.1062685E-1,-2.860226E-2],"split_indices":[293,479,108,477,132,160,484,491,207,405,132,491,493,451,106,195,396,500,510,491,404,408,442,118,462,97,477,187,108,225,408,429,49,234,244,234,468,291,165,477,195,234,97,152,195,495,19,123,408,371,128,188,507,160,370,505,465,47,297,191,389,297,294,0,0,0,0,0,0,0,0,0,0,0,0,0,0,0,0,0,0,0,0,0,0,0,0,0,0,0,0,0,0,0,0,0,0,0,0,0,0,0,0,0,0,0,0,0,0,0,0,0,0,0,0,0,0,0,0,0,0,0,0,0,0,0,0],"split_type":[0,0,0,0,0,0,0,0,0,0,0,0,0,0,0,0,0,0,0,0,0,0,0,0,0,0,0,0,0,0,0,0,0,0,0,0,0,0,0,0,0,0,0,0,0,0,0,0,0,0,0,0,0,0,0,0,0,0,0,0,0,0,0,0,0,0,0,0,0,0,0,0,0,0,0,0,0,0,0,0,0,0,0,0,0,0,0,0,0,0,0,0,0,0,0,0,0,0,0,0,0,0,0,0,0,0,0,0,0,0,0,0,0,0,0,0,0,0,0,0,0,0,0,0,0,0,0],"sum_hessian":[4.405965E5,9.631818E4,3.4427834E5,4.3164062E4,5.3154117E4,3.270788E5,1.7199516E4,2.3293855E4,1.9870205E4,4.9849586E4,3.304532E3,1.9845325E5,1.2862557E5,6.223359E3,1.0976156E4,2.1155857E4,2.137997E3,1.828651E4,1.5836957E3,2.440221E4,2.5447375E4,1.2858549E3,2.0186771E3,1.778101E5,2.0643156E4,4.843767E3,1.23781805E5,4.1574243E3,2.0659348E3,1.3751707E3,9.600985E3,1.3126974E3,1.984316E4,1.1916201E3,9.46377E2,1.2999148E3,1.6986596E4,7.8876794E2,7.949277E2,1.0767545E4,1.3634665E4,2.4657775E4,7.895986E2,6.748196E2,6.110353E2,2.0107866E3,7.890483E0,1.7442119E5,3.3888977E3,1.1845391E4,8.797766E3,3.8647742E3,9.789928E2,3.065911E3,1.2071589E5,1.4512358E3,2.7061882E3,1.5551437E3,5.1079105E2,5.7757446E2,7.9759625E2,6.6778755E3,2.9231094E3,2.9914832E2,1.0135491E3,5.5985327E3,1.4244628E4,1.1519155E3,3.970468E1,7.668462E2,1.795308E2,4.482244E2,8.516904E2,1.218762E4,4.798975E3,7.3452405E2,5.4243896E1,2.4632845E2,5.485992E2,7.992831E3,2.7747144E3,3.6434225E2,1.3270322E4,8.000051E2,2.3857771E4,1.4404376E1,7.751942E2,6.670217E2,7.7978315E0,2.8762866E2,3.234066E2,1.9581477E3,5.263898E1,4.7257714E0,3.1647117E0,8.689374E4,8.752745E4,2.6132559E3,7.7564166E2,2.2308677E3,9.614523E3,8.373692E3,4.2407367E2,7.006808E2,3.1640935E3,9.3599066E2,4.300213E1,1.4182604E3,1.6476504E3,1.1849183E5,2.224065E3,3.7990067E2,1.0713352E3,1.2461342E3,1.4600542E3,7.951716E1,1.4756265E3,4.7114737E2,3.9643654E1,2.2597572E2,3.5159872E2,5.8439374E2,2.1320253E2,6.409444E3,2.6843185E2,2.887995E3,3.511443E1],"tree_param":{"num_deleted":"0","num_feature":"514","num_nodes":"127","size_leaf_vector":"0"}},{"base_weights":[1.7587365E-1,-5.6097746E-2,2.4032195E-1,-3.602256E-1,1.0114377E-1,2.2233751E-1,9.164544E-1,6.989231E-2,-4.828744E-1,6.4748876E-2,8.764812E-1,4.5093693E-2,2.6870978E-1,5.199106E-1,1.0096406E0,4.2823875E-1,-1.0783901E-1,-6.405575E-1,-3.2261485E-1,2.703076E-1,-3.3748884E-2,6.346275E-1,1.0972271E0,1.609679E-1,-1.2880336E-1,1.5061854E-1,3.207727E-1,6.355616E-1,-6.27947E-3,1.0733062E0,8.784434E-1,1.6041395E-1,6.782176E-1,-4.2240578E-1,1.994033E-2,-6.7819625E-1,-1.3432217E-1,-3.5780188E-1,3.6796537E-1,1.48911E-1,4.8888612E-1,-3.2270223E-1,3.0261181E-2,7.2831714E-1,-2.0828539E-1,1.1226848E0,-2.4505202E-1,8.693798E-2,6.3680357E-1,-2.1820633E-1,1.6336115E-1,-9.7355194E-2,2.1525158E-1,2.6740047E-1,4.3621036E-1,7.5124276E-1,1.9288988E-1,-1.2088623E0,2.3043168E-1,-1.8551118E0,1.076129E0,8.873561E-1,-2.1610775E0,-4.7958985E-1,3.2934463E-1,4.255578E-1,1.1068091E0,-2.2111729E-1,-7.944249E-1,-6.444991E-1,1.07643925E-1,-6.466756E-1,-1.1052588E0,-5.8459175E-1,2.916518E-1,-3.7889093E-1,8.264601E-1,-6.665035E-1,4.8094738E-1,2.0487298E-1,-1.8314797E-1,2.1099922E-1,6.303005E-1,-3.8002437E-1,2.6256695E-1,1.2413655E-1,-1.3274768E-1,1.3162628E0,6.36651E-1,1.7160504E-1,-1.1981697E0,1.1291656E0,-1.1482369E0,-2.1731057E0,3.939189E-1,4.3806836E-2,7.809227E-1,6.9723463E-1,-6.117144E-1,-2.9096997E-1,8.9296445E-2,-1.450683E-1,2.9474294E-1,3.334589E-1,-3.282756E-1,2.5032932E-1,-5.194219E-1,3.3140382E-1,1.3766E-1,4.490144E-1,-9.801316E-2,8.180263E-1,9.748512E-2,-2.5576458E0,2.6002854E-1,-1.4851516E0,5.905232E-1,-1.4243358E0,3.8806668E-1,1.1071934E0,9.457856E-1,6.3588464E-1,9.763543E-1,-2.9419374E0,-8.683917E-1],"categories":[],"categories_nodes":[],"categories_segments":[],"categories_sizes":[],"default_left":[1,0,1,0,1,1,0,0,0,1,1,0,0,0,0,0,0,1,1,0,0,0,0,0,0,0,1,1,1,0,1,0,0,1,0,1,0,0,0,0,0,1,0,0,0,1,0,1,0,1,0,0,0,0,0,0,0,1,0,0,0,0,1,0,0,0,0,0,0,0,0,0,0,0,0,0,0,0,0,0,0,0,0,0,0,0,0,0,0,0,0,0,0,0,0,0,0,0,0,0,0,0,0,0,0,0,0,0,0,0,0,0,0,0,0,0,0,0,0,0,0,0,0,0,0],"id":8,"left_children":[1,3,5,7,9,11,13,15,17,19,21,23,25,27,29,31,33,35,37,39,41,43,45,47,49,51,53,55,57,59,61,63,65,67,69,71,73,75,77,79,81,83,85,87,89,91,93,95,97,99,101,103,105,107,109,111,113,115,117,-1,119,121,123,-1,-1,-1,-1,-1,-1,-1,-1,-1,-1,-1,-1,-1,-1,-1,-1,-1,-1,-1,-1,-1,-1,-1,-1,-1,-1,-1,-1,-1,-1,-1,-1,-1,-1,-1,-1,-1,-1,-1,-1,-1,-1,-1,-1,-1,-1,-1,-1,-1,-1,-1,-1,-1,-1,-1,-1,-1,-1,-1,-1,-1,-1],"loss_changes":[6.527662E3,4.5398955E3,4.15476E3,1.7068682E3,1.765831E3,2.7356914E3,3.266123E2,4.5732578E2,6.3599854E2,1.2102723E3,1.4909692E2,1.3908734E3,1.6219609E3,1.026413E2,5.8924316E1,1.5927408E2,1.9295447E2,2.4168652E2,3.0358496E2,5.137416E2,7.474643E2,1.06071594E2,5.0353516E1,1.459122E3,7.210134E2,1.2938104E3,1.1279707E3,7.066205E1,8.707095E1,4.184912E1,6.550464E1,1.2455542E2,1.3283325E2,1.0366301E2,1.9904839E2,1.5827197E2,1.688403E2,2.970929E2,7.114128E1,2.314096E2,2.7156445E2,2.4597272E2,5.0628598E2,6.422833E1,5.095048E1,2.2466309E1,3.5472343E1,1.0729642E3,4.211892E2,4.7292737E2,2.6213394E2,1.6605742E3,1.6503379E3,1.0396758E3,3.960088E2,4.776715E1,5.3815926E1,2.5885635E1,6.7223076E1,0E0,1.845752E1,5.1773315E1,4.6661873E0,0E0,0E0,0E0,0E0,0E0,0E0,0E0,0E0,0E0,0E0,0E0,0E0,0E0,0E0,0E0,0E0,0E0,0E0,0E0,0E0,0E0,0E0,0E0,0E0,0E0,0E0,0E0,0E0,0E0,0E0,0E0,0E0,0E0,0E0,0E0,0E0,0E0,0E0,0E0,0E0,0E0,0E0,0E0,0E0,0E0,0E0,0E0,0E0,0E0,0E0,0E0,0E0,0E0,0E0,0E0,0E0,0E0,0E0,0E0,0E0,0E0,0E0],"parents":[2147483647,0,0,1,1,2,2,3,3,4,4,5,5,6,6,7,7,8,8,9,9,10,10,11,11,12,12,13,13,14,14,15,15,16,16,17,17,18,18,19,19,20,20,21,21,22,22,23,23,24,24,25,25,26,26,27,27,28,28,29,29,30,30,31,31,32,32,33,33,34,34,35,35,36,36,37,37,38,38,39,39,40,40,41,41,42,42,43,43,44,44,45,45,46,46,47,47,48,48,49,49,50,50,51,51,52,52,53,53,54,54,55,55,56,56,57,57,58,58,60,60,61,61,62,62],"right_children":[2,4,6,8,10,12,14,16,18,20,22,24,26,28,30,32,34,36,38,40,42,44,46,48,50,52,54,56,58,60,62,64,66,68,70,72,74,76,78,80,82,84,86,88,90,92,94,96,98,100,102,104,106,108,110,112,114,116,118,-1,120,122,124,-1,-1,-1,-1,-1,-1,-1,-1,-1,-1,-1,-1,-1,-1,-1,-1,-1,-1,-1,-1,-1,-1,-1,-1,-1,-1,-1,-1,-1,-1,-1,-1,-1,-1,-1,-1,-1,-1,-1,-1,-1,-1,-1,-1,-1,-1,-1,-1,-1,-1,-1,-1,-1,-1,-1,-1,-1,-1,-1,-1,-1,-1],"split_conditions":[4.4395E-1,7.8885E3,7.511E-1,4.22937E3,6.0005E-1,9.95E1,7.2055E3,3.9644998E-1,5.734E3,9.05E1,8.0895E-1,1.8534E1,3.4500003E-2,5.32065E1,5.7255E3,4.6325E-1,1.4164999E-1,7.5E0,8.5E0,1.90399E6,1.1445E3,9.7E1,3.7882E1,2.0993E1,4.788095E5,4.475E2,9.5E0,1.175E1,2.5E0,5.396E3,3.678E1,3.5E0,4.197E3,7.66325E2,1.16035E1,2.55E1,1.10478E1,5.55E-2,6.88245E4,6.7635E-1,5.09E2,5.5E0,5.102E-1,2.68375E1,8.05E1,8.95E1,7.676E-1,4.0515E-1,1.8456E4,2.5E0,2.1552E1,1.5645E3,1.405E2,5.7625E-1,1.683E4,9.6360004E-1,1.96E0,3.048905E1,2.35E0,-2.2261341E-1,4.5E0,9.9995E-1,1.5E0,-5.755078E-2,3.9521355E-2,5.1066935E-2,1.3281709E-1,-2.6534073E-2,-9.533098E-2,-7.7339895E-2,1.2917271E-2,-7.760107E-2,-1.3263105E-1,-7.015101E-2,3.4998212E-2,-4.546691E-2,9.9175215E-2,-7.998042E-2,5.7713684E-2,2.4584757E-2,-2.1977756E-2,2.5319906E-2,7.563606E-2,-4.5602925E-2,3.1508032E-2,1.4896386E-2,-1.5929721E-2,1.5795153E-1,7.639812E-2,2.0592604E-2,-1.4378037E-1,1.3549988E-1,-1.3778841E-1,-2.6077268E-1,4.727027E-2,5.25682E-3,9.371072E-2,8.366816E-2,-7.340573E-2,-3.4916397E-2,1.0715573E-2,-1.7408196E-2,3.5369154E-2,4.0015068E-2,-3.939307E-2,3.0039517E-2,-6.2330622E-2,3.9768457E-2,1.65192E-2,5.3881727E-2,-1.176158E-2,9.816316E-2,1.1698213E-2,-3.069175E-1,3.1203425E-2,-1.782182E-1,7.086278E-2,-1.709203E-1,4.6568E-2,1.328632E-1,1.1349427E-1,7.630616E-2,1.1716251E-1,-3.530325E-1,-1.04207E-1],"split_indices":[293,471,108,500,132,131,485,409,472,491,128,505,462,497,359,405,114,223,206,442,418,361,495,507,371,367,15,272,188,423,310,24,340,96,476,326,180,461,446,387,20,223,407,497,129,356,385,132,430,29,505,443,69,409,428,386,261,177,272,0,229,108,219,0,0,0,0,0,0,0,0,0,0,0,0,0,0,0,0,0,0,0,0,0,0,0,0,0,0,0,0,0,0,0,0,0,0,0,0,0,0,0,0,0,0,0,0,0,0,0,0,0,0,0,0,0,0,0,0,0,0,0,0,0,0],"split_type":[0,0,0,0,0,0,0,0,0,0,0,0,0,0,0,0,0,0,0,0,0,0,0,0,0,0,0,0,0,0,0,0,0,0,0,0,0,0,0,0,0,0,0,0,0,0,0,0,0,0,0,0,0,0,0,0,0,0,0,0,0,0,0,0,0,0,0,0,0,0,0,0,0,0,0,0,0,0,0,0,0,0,0,0,0,0,0,0,0,0,0,0,0,0,0,0,0,0,0,0,0,0,0,0,0,0,0,0,0,0,0,0,0,0,0,0,0,0,0,0,0,0,0,0,0],"sum_hessian":[4.366263E5,9.493239E4,3.4169394E5,3.2353928E4,6.2578465E4,3.32842E5,8.851932E3,7.1788403E3,2.5175086E4,5.9773727E4,2.8047383E3,6.902332E4,2.6381866E5,1.6856049E3,7.166327E3,2.379607E3,4.7992334E3,1.2688036E4,1.248705E4,1.936287E4,4.0410855E4,1.34023E3,1.4645083E3,4.1422207E4,2.7601117E4,8.072313E4,1.8309553E5,1.3817114E3,3.0389334E2,4.820109E3,2.3462183E3,1.1495897E3,1.2300171E3,1.3856757E3,3.4135579E3,1.1809646E4,8.783903E2,1.18821045E4,6.0494574E2,1.2449954E4,6.912915E3,7.327793E3,3.3083062E4,1.2062874E3,1.3394269E2,1.4374099E3,2.7098331E1,3.5846445E4,5.5757627E3,2.1134244E4,6.4668716E3,1.6689814E4,6.403332E4,1.252089E5,5.788664E4,1.0948918E3,2.8681967E2,4.930389E1,2.5458946E2,4.0098615E0,4.8160986E3,2.3400647E3,6.153649E0,2.3968604E2,9.0990375E2,7.7508704E2,4.5493002E2,9.001991E2,4.8547662E2,3.9729742E2,3.0162605E3,1.1000253E4,8.0939343E2,4.2683655E2,4.5155377E2,1.1674881E4,2.072231E2,5.908266E1,5.4586304E2,1.0654698E4,1.7952562E3,2.3323037E3,4.5806113E3,6.674439E3,6.533541E2,2.099339E4,1.2089671E4,1.6090228E2,1.045385E3,9.739269E1,3.655E1,1.4338208E3,3.589113E0,6.1475496E0,2.0950783E1,3.374995E4,2.0964958E3,5.318764E3,2.5699854E2,1.709027E4,4.0439746E3,1.9317731E3,4.5350986E3,5.823961E3,1.0865853E4,6.1115938E4,2.9173833E3,8.384505E4,4.136385E4,5.6531867E4,1.3547722E3,9.931835E2,1.0170831E2,5.9503603E0,2.808693E2,4.289253E1,6.4113617E0,2.1444193E1,2.3314526E2,3.8831455E3,9.329532E2,6.138179E2,1.7262467E3,3.0409179E0,3.1127307E0],"tree_param":{"num_deleted":"0","num_feature":"514","num_nodes":"125","size_leaf_vector":"0"}},{"base_weights":[1.5650696E-1,-9.007288E-2,2.058452E-1,-2.5965327E-1,1.2943567E-1,1.885714E-1,8.401653E-1,-3.28195E-1,1.4918862E-1,2.5464928E-1,-7.37524E-2,1.2854354E-1,3.027008E-1,3.2427895E-1,9.6107394E-1,-2.3062846E-1,-5.6543034E-1,2.6674452E-1,-2.2194168E-1,3.3922336E-1,-1.6502191E-1,-1.15472354E-1,4.12913E-1,8.577448E-3,2.0136897E-1,1.4200626E-1,3.5133693E-1,9.4292335E-2,8.2047564E-1,1.0646814E0,8.3762616E-1,1.7360547E-1,-2.8653184E-1,7.0845383E-1,-6.066567E-1,1.8339309E-1,5.965578E-1,-3.7289363E-1,2.8826836E-1,1.4056592E-1,5.862681E-1,-4.8219547E-1,2.4563126E-1,-8.694525E-2,-6.875721E-1,-5.364867E-1,5.842498E-1,6.973332E-2,-2.1588805E-1,-3.881256E-1,2.1935873E-1,4.733127E-2,3.540486E-1,7.7434205E-2,3.6885324E-1,-1.2975626E-1,4.5457253E-1,-1.6104192E0,8.465752E-1,1.070512E0,9.245272E-2,6.851305E-1,9.1798526E-1,-7.6205313E-1,2.596719E-1,-5.394012E-1,-1.675554E-1,1.6459682E0,-6.5071535E-1,-6.209813E-1,1.4902403E0,2.2245051E-1,-4.6440238E-1,8.26502E-1,2.1644919E-1,7.218691E-1,-4.5033997E-1,-2.0821169E-1,6.413552E-1,-4.3281987E-1,1.9072449E-1,7.207237E-1,2.8444776E-1,-1.2994032E-1,-7.424405E-1,-6.1999094E-2,4.2588952E-1,-4.6680877E-3,-3.2573965E-1,2.6244685E-2,-9.1844827E-1,-1.3986441E0,8.3893865E-2,1.0603428E0,3.794794E-1,-3.003373E-1,1.0786261E-1,-4.8584184E-1,-6.802092E-2,-3.483397E-2,-6.195047E-1,1.8728983E-1,5.198933E-1,1.4960171E-1,-2.545685E-1,3.8933757E-1,-1.5239494E-1,3.2404208E-1,-1.22642085E-1,3.4312123E-1,5.1503026E-1,8.989972E-2,-5.262105E-1,-2.5508198E-1,6.598188E-1,5.743669E-1,1.0172404E0,1.1862887E0,1.0285075E0,-1.6141084E0,5.8818585E-1,2.344942E-2,8.143264E-1,9.6047205E-1,5.8247524E-1],"categories":[],"categories_nodes":[],"categories_segments":[],"categories_sizes":[],"default_left":[1,1,1,1,0,1,1,1,0,1,1,0,0,1,0,0,0,1,0,0,1,0,1,0,1,0,0,0,0,0,0,1,0,0,1,0,0,0,1,0,1,1,0,1,0,1,1,0,0,0,1,0,0,0,1,0,0,0,0,0,0,0,1,0,0,0,0,0,0,0,0,0,0,0,0,0,0,0,0,0,0,0,0,0,0,0,0,0,0,0,0,0,0,0,0,0,0,0,0,0,0,0,0,0,0,0,0,0,0,0,0,0,0,0,0,0,0,0,0,0,0,0,0,0,0],"id":9,"left_children":[1,3,5,7,9,11,13,15,17,19,21,23,25,27,29,31,33,35,37,39,41,43,45,47,49,51,53,55,57,59,61,63,65,67,69,71,73,75,77,79,81,83,85,87,89,91,93,95,97,99,101,103,105,107,109,111,113,-1,115,117,119,121,123,-1,-1,-1,-1,-1,-1,-1,-1,-1,-1,-1,-1,-1,-1,-1,-1,-1,-1,-1,-1,-1,-1,-1,-1,-1,-1,-1,-1,-1,-1,-1,-1,-1,-1,-1,-1,-1,-1,-1,-1,-1,-1,-1,-1,-1,-1,-1,-1,-1,-1,-1,-1,-1,-1,-1,-1,-1,-1,-1,-1,-1,-1],"loss_changes":[5.264968E3,2.6859746E3,3.9511035E3,1.1407871E3,8.0013855E2,2.405003E3,5.959663E2,8.0682153E2,2.5508546E2,6.906926E2,2.4352234E2,2.0098926E3,9.4562305E2,2.072288E2,9.81543E1,5.5833887E2,5.339563E2,1.21940094E2,1.0844646E2,7.947208E2,4.2528616E2,1.8020853E2,1.5436726E2,1.1929581E3,1.5182085E3,5.6438837E2,4.456123E2,1.0034517E2,3.785663E1,2.374707E1,4.27312E1,2.4195554E2,6.528872E2,4.0746188E2,2.965227E2,8.980861E1,7.806665E1,9.2398315E1,5.653277E1,2.5828827E2,2.927141E2,1.6877441E2,7.894579E1,2.0673047E2,8.645891E1,7.7836044E1,7.7856995E1,9.6372595E2,7.427229E2,3.4654498E2,1.3387378E3,6.001828E2,1.5515222E2,2.7557196E2,3.2820312E2,6.682302E1,6.958567E1,0E0,2.588382E1,1.9115234E1,2.3090908E1,1.04704834E2,3.2430298E1,0E0,0E0,0E0,0E0,0E0,0E0,0E0,0E0,0E0,0E0,0E0,0E0,0E0,0E0,0E0,0E0,0E0,0E0,0E0,0E0,0E0,0E0,0E0,0E0,0E0,0E0,0E0,0E0,0E0,0E0,0E0,0E0,0E0,0E0,0E0,0E0,0E0,0E0,0E0,0E0,0E0,0E0,0E0,0E0,0E0,0E0,0E0,0E0,0E0,0E0,0E0,0E0,0E0,0E0,0E0,0E0,0E0,0E0,0E0,0E0,0E0,0E0],"parents":[2147483647,0,0,1,1,2,2,3,3,4,4,5,5,6,6,7,7,8,8,9,9,10,10,11,11,12,12,13,13,14,14,15,15,16,16,17,17,18,18,19,19,20,20,21,21,22,22,23,23,24,24,25,25,26,26,27,27,28,28,29,29,30,30,31,31,32,32,33,33,34,34,35,35,36,36,37,37,38,38,39,39,40,40,41,41,42,42,43,43,44,44,45,45,46,46,47,47,48,48,49,49,50,50,51,51,52,52,53,53,54,54,55,55,56,56,58,58,59,59,60,60,61,61,62,62],"right_children":[2,4,6,8,10,12,14,16,18,20,22,24,26,28,30,32,34,36,38,40,42,44,46,48,50,52,54,56,58,60,62,64,66,68,70,72,74,76,78,80,82,84,86,88,90,92,94,96,98,100,102,104,106,108,110,112,114,-1,116,118,120,122,124,-1,-1,-1,-1,-1,-1,-1,-1,-1,-1,-1,-1,-1,-1,-1,-1,-1,-1,-1,-1,-1,-1,-1,-1,-1,-1,-1,-1,-1,-1,-1,-1,-1,-1,-1,-1,-1,-1,-1,-1,-1,-1,-1,-1,-1,-1,-1,-1,-1,-1,-1,-1,-1,-1,-1,-1,-1,-1,-1,-1,-1,-1],"split_conditions":[4.0835E-1,5.85E1,6.6675E-1,8.585E-2,6.0365E-1,1.845E2,1.53E2,1.5E0,2.39685E1,1.5E0,7.9285E-1,7.466E3,3.0499998E-2,3.9E1,2.95345E1,4.22889E3,9.95E-1,2.3565E-1,2.55E1,7.9665E-1,2.6205E-1,9.3694997E-1,4.75E1,2.27015E1,2.82E-2,9.85E1,1.085E2,4.85E-2,1.56555E1,3.295E2,9.9995E-1,1.6592E1,4.1908125E4,7.3864996E-1,6.5E0,6.23418E5,4.745E-1,9.55E1,9.649E-1,5.0895E-1,2.416E3,7.85E1,1.5285E-1,1.5E0,1.2014999E0,7.3434997E-1,1.115E-1,4.956E3,6.4500004E-2,1.0475E4,2.7464998E-1,8.95E1,8.1515E-1,5.55E1,3.0405E0,2.6217701E1,5.5E0,-1.932503E-1,8.033E-1,1.37775E4,8.5300004E-1,1.7824501E1,3.8049998E0,-9.144638E-2,3.1160627E-2,-6.472814E-2,-2.0106649E-2,1.9751617E-1,-7.808584E-2,-7.451775E-2,1.7882884E-1,2.6694061E-2,-5.5728283E-2,9.9180244E-2,2.5973901E-2,8.6624295E-2,-5.4040797E-2,-2.4985403E-2,7.696263E-2,-5.1938385E-2,2.288694E-2,8.648684E-2,3.413373E-2,-1.5592838E-2,-8.909286E-2,-7.439891E-3,5.110674E-2,-5.601705E-4,-3.9088756E-2,3.149362E-3,-1.1021379E-1,-1.6783729E-1,1.0067264E-2,1.2724113E-1,4.5537528E-2,-3.6040477E-2,1.2943513E-2,-5.830102E-2,-8.16251E-3,-4.1800765E-3,-7.434056E-2,2.2474779E-2,6.2387194E-2,1.7952206E-2,-3.0548219E-2,4.672051E-2,-1.8287392E-2,3.888505E-2,-1.471705E-2,4.1174546E-2,6.180363E-2,1.0787966E-2,-6.314526E-2,-3.0609837E-2,7.917826E-2,6.892403E-2,1.22068845E-1,1.4235464E-1,1.23420894E-1,-1.9369301E-1,7.05823E-2,2.8139304E-3,9.771917E-2,1.15256645E-1,6.9897026E-2],"split_indices":[237,391,110,293,386,123,372,324,507,325,289,469,462,488,496,500,313,116,200,383,290,386,127,505,48,361,367,462,476,109,108,494,502,42,219,447,409,395,243,384,430,357,116,325,345,61,349,371,467,367,146,361,386,429,162,180,333,0,112,430,108,507,268,0,0,0,0,0,0,0,0,0,0,0,0,0,0,0,0,0,0,0,0,0,0,0,0,0,0,0,0,0,0,0,0,0,0,0,0,0,0,0,0,0,0,0,0,0,0,0,0,0,0,0,0,0,0,0,0,0,0,0,0,0,0],"split_type":[0,0,0,0,0,0,0,0,0,0,0,0,0,0,0,0,0,0,0,0,0,0,0,0,0,0,0,0,0,0,0,0,0,0,0,0,0,0,0,0,0,0,0,0,0,0,0,0,0,0,0,0,0,0,0,0,0,0,0,0,0,0,0,0,0,0,0,0,0,0,0,0,0,0,0,0,0,0,0,0,0,0,0,0,0,0,0,0,0,0,0,0,0,0,0,0,0,0,0,0,0,0,0,0,0,0,0,0,0,0,0,0,0,0,0,0,0,0,0,0,0,0,0,0,0],"sum_hessian":[4.3276475E5,7.2154484E4,3.6061028E5,4.0706594E4,3.1447887E4,3.5105172E5,9.558546E3,3.4862195E4,5.8443984E3,1.9457223E4,1.1990665E4,2.3005397E5,1.20997766E5,1.8155852E3,7.7429604E3,2.4704197E4,1.0157997E4,4.438713E3,1.4056854E3,1.6193937E4,3.2632854E3,1.1044615E4,9.460497E2,8.690144E4,1.4315253E5,2.8113672E4,9.288409E4,1.2413916E3,5.741936E2,4.2056274E3,3.5373328E3,3.0011267E3,2.170307E4,3.179278E2,9.840069E3,3.544494E3,8.942192E2,1.0849567E3,3.2072873E2,8.976879E3,7.2170576E3,1.841107E3,1.4221783E3,1.0521143E4,5.234727E2,1.443051E2,8.0174457E2,6.829506E4,1.8606375E4,4.238642E3,1.3891389E5,1.9436621E4,8.677052E3,5.583314E3,8.730078E4,7.658006E2,4.75591E2,5.454584E0,5.68739E2,4.1804556E3,2.5172035E1,1.224035E3,2.3132979E3,2.5214249E2,2.7489844E3,6.9430225E3,1.4760049E4,1.8802367E2,1.2990414E2,9.774004E3,6.606536E1,3.3435579E3,2.0093593E2,5.564338E2,3.377854E2,7.113193E1,1.0138247E3,1.3346799E2,1.8726076E2,7.214961E2,8.255383E3,4.9918774E3,2.2251804E3,7.829045E2,1.0582025E3,5.2568896E2,8.964894E2,7.825774E3,2.695369E3,1.2814954E2,3.9532318E2,5.9860733E1,8.444436E1,2.3986893E2,5.618757E2,6.378688E3,6.191637E4,6.584001E3,1.2022374E4,1.6778662E3,2.5607756E3,1.25521586E5,1.3392301E4,1.4518793E4,4.9178276E3,8.112037E3,5.650147E2,2.5005696E3,3.0827446E3,7.423609E4,1.3064683E4,4.9327448E2,2.7252612E2,1.066383E2,3.6895273E2,2.208509E2,3.4788812E2,1.1056702E3,3.0747852E3,5.1583643E0,2.001367E1,2.001486E2,1.02388635E3,2.0516304E3,2.616675E2],"tree_param":{"num_deleted":"0","num_feature":"514","num_nodes":"125","size_leaf_vector":"0"}},{"base_weights":[1.399489E-1,1.2573564E-1,8.535824E-1,-6.0150564E-2,1.7881647E-1,3.6851802E-1,9.656132E-1,-2.2713657E-1,1.3845493E-1,1.7045382E-1,8.352206E-1,1.4855187E-1,7.773325E-1,1.0486788E0,8.1408817E-1,-6.502331E-2,-3.596906E-1,2.2076288E-1,-1.6903454E-1,1.1968362E-1,2.641955E-1,3.8357556E-1,9.312027E-1,-5.375955E-2,5.5740553E-1,-7.5249535E-1,9.2920053E-1,1.2094716E0,9.9127716E-1,8.598247E-1,3.5451096E-1,-1.4238238E-2,-7.1816075E-1,-4.9646014E-1,-2.2596113E-1,-3.4657562E-1,2.4619831E-1,-1.8715745E-1,9.405052E-1,7.2346805E-3,1.8382263E-1,2.8277352E-1,-2.981287E-1,7.0469445E-1,9.298224E-2,9.8145413E-1,5.270565E-1,7.046126E-1,-2.3845686E-1,2.8511345E-2,7.9435027E-1,8.533193E-2,-1.5702595E0,-6.9193757E-1,9.8354965E-1,1.3301412E0,1.163607E0,-5.034729E-1,9.968239E-1,-1.2537876E-1,8.7507004E-1,-1.4162712E-1,8.137612E-1,-5.5539418E-2,4.9479833E-1,-8.056224E-1,5.0278956E-1,1.6028473E-1,-5.380026E-1,1.8436086E-1,-3.0099368E-1,-1.07965946E-1,-5.818464E-1,2.2928697E-1,1.0491314E0,-2.3006155E-1,2.923815E-1,-7.129636E-1,1.047936E0,-7.326783E-2,1.4201854E-1,-4.3398687E-1,1.9854955E-1,1.9268048E-1,3.621126E-1,-5.0053924E-1,3.4867424E-1,-2.2698216E0,7.4514806E-1,-7.2035205E-1,2.526328E-1,1.024692E0,5.456774E-1,7.321551E-1,-4.7248673E-1,1.0802652E0,-4.786703E-1,-7.479166E-1,-3.7595645E-2,-9.1939473E-1,6.30592E-1,2.0525242E-1,1.0449966E0,-1.4120388E0,8.7558156E-1,-1.880952E0,2.9023153E-1,-2.130283E0,2.3294637E-1,1.0066684E0,-1.633583E0,1.3425938E0,3.6156303E-1,4.17964E-1,1.168995E0,-2.470178E0,5.525027E-1,1.0002205E0,-1.0001225E0,-1.4824646E0,3.8765815E-1,8.832374E-1,-6.9875914E-1,1.1917206E-1,-2.164295E0,9.152166E-1,-1.0527017E0],"categories":[],"categories_nodes":[],"categories_segments":[],"categories_sizes":[],"default_left":[1,1,1,0,1,1,0,0,0,1,0,1,0,0,0,1,0,0,1,0,1,1,0,0,1,0,0,1,0,0,0,0,0,0,0,0,1,0,0,0,1,0,1,0,0,0,0,0,0,0,1,0,0,0,1,1,0,1,1,1,1,0,1,0,0,0,0,0,0,0,0,0,0,0,0,0,0,0,0,0,0,0,0,0,0,0,0,0,0,0,0,0,0,0,0,0,0,0,0,0,0,0,0,0,0,0,0,0,0,0,0,0,0,0,0,0,0,0,0,0,0,0,0,0,0,0,0],"id":10,"left_children":[1,3,5,7,9,11,13,15,17,19,21,23,25,27,29,31,33,35,37,39,41,43,45,47,49,51,53,55,57,59,61,63,65,67,69,71,73,75,77,79,81,83,85,87,89,91,93,95,97,99,101,103,105,107,109,111,113,115,117,119,121,123,125,-1,-1,-1,-1,-1,-1,-1,-1,-1,-1,-1,-1,-1,-1,-1,-1,-1,-1,-1,-1,-1,-1,-1,-1,-1,-1,-1,-1,-1,-1,-1,-1,-1,-1,-1,-1,-1,-1,-1,-1,-1,-1,-1,-1,-1,-1,-1,-1,-1,-1,-1,-1,-1,-1,-1,-1,-1,-1,-1,-1,-1,-1,-1,-1],"loss_changes":[4.362573E3,4.161089E3,4.5606592E2,3.1067043E3,1.8005762E3,1.417416E2,8.5018555E1,1.0935149E3,1.0829326E3,1.541582E3,1.7852441E2,8.496902E1,1.2885806E2,3.9442383E1,5.0567505E1,7.5934924E2,5.1194946E2,4.8715674E2,1.8185947E2,1.5154597E3,1.1889214E3,6.75825E1,6.858423E1,9.651711E1,4.2587135E1,3.4642944E1,4.493271E1,4.838257E0,2.7451172E1,3.31604E1,5.041594E1,4.466275E2,1.7677643E2,3.7768457E2,4.359287E2,8.12655E1,4.384215E2,1.8299161E2,2.6570587E1,8.28108E2,1.2174712E3,7.8733887E2,4.7671054E2,4.311267E1,4.974691E1,5.6439453E1,7.792834E1,6.051152E1,5.665263E1,6.1209274E1,3.44516E1,3.1797298E1,1.5309311E1,2.2950388E1,3.1072449E1,3.2631226E0,2.9023438E0,2.770169E1,2.2968506E1,2.4529858E1,2.8473022E1,5.6685867E1,2.2700493E1,0E0,0E0,0E0,0E0,0E0,0E0,0E0,0E0,0E0,0E0,0E0,0E0,0E0,0E0,0E0,0E0,0E0,0E0,0E0,0E0,0E0,0E0,0E0,0E0,0E0,0E0,0E0,0E0,0E0,0E0,0E0,0E0,0E0,0E0,0E0,0E0,0E0,0E0,0E0,0E0,0E0,0E0,0E0,0E0,0E0,0E0,0E0,0E0,0E0,0E0,0E0,0E0,0E0,0E0,0E0,0E0,0E0,0E0,0E0,0E0,0E0,0E0,0E0,0E0],"parents":[2147483647,0,0,1,1,2,2,3,3,4,4,5,5,6,6,7,7,8,8,9,9,10,10,11,11,12,12,13,13,14,14,15,15,16,16,17,17,18,18,19,19,20,20,21,21,22,22,23,23,24,24,25,25,26,26,27,27,28,28,29,29,30,30,31,31,32,32,33,33,34,34,35,35,36,36,37,37,38,38,39,39,40,40,41,41,42,42,43,43,44,44,45,45,46,46,47,47,48,48,49,49,50,50,51,51,52,52,53,53,54,54,55,55,56,56,57,57,58,58,59,59,60,60,61,61,62,62],"right_children":[2,4,6,8,10,12,14,16,18,20,22,24,26,28,30,32,34,36,38,40,42,44,46,48,50,52,54,56,58,60,62,64,66,68,70,72,74,76,78,80,82,84,86,88,90,92,94,96,98,100,102,104,106,108,110,112,114,116,118,120,122,124,126,-1,-1,-1,-1,-1,-1,-1,-1,-1,-1,-1,-1,-1,-1,-1,-1,-1,-1,-1,-1,-1,-1,-1,-1,-1,-1,-1,-1,-1,-1,-1,-1,-1,-1,-1,-1,-1,-1,-1,-1,-1,-1,-1,-1,-1,-1,-1,-1,-1,-1,-1,-1,-1,-1,-1,-1,-1,-1,-1,-1,-1,-1,-1,-1],"split_conditions":[6.6675E-1,1.5E0,1.53E2,7.20705E4,8.0215E-1,3.837E3,3.0972E1,1.3967E1,6.6275E-1,3.5E0,1.0788E4,3.5E0,7.6625E-1,1.37775E4,2.9538E4,7.5E0,6.25735E4,5.0895E-1,7.228E-1,6.6955E3,4.336165E5,8.9915E-1,3.075E2,8.0805004E-1,8.2935E-1,4.35E0,1.467E3,3.6665E-1,1.8895E-1,4.15E1,3.105E2,4.29E2,2.925E2,9.995E0,7.5E0,8.45E1,7.5105E-1,2.40235E1,8.1665003E-1,2.65E1,2.01E-2,4.45E-2,2.134E-1,7.6E1,1.4039E1,5.4704E4,1.27285E4,1.235E2,1.5E0,3.595E2,7.1245E-1,3.4142E4,5.7E1,8.55E1,2.95E1,1.88E1,4.9675E-1,9.0445E-1,4.935E1,6.125E-1,3.9965E1,5.38842E1,2.47957E1,-6.66473E-3,5.93758E-2,-9.667469E-2,6.0334746E-2,1.9234167E-2,-6.456031E-2,2.2123303E-2,-3.611924E-2,-1.2955913E-2,-6.982157E-2,2.7514435E-2,1.2589577E-1,-2.7607385E-2,3.508578E-2,-8.555563E-2,1.2575231E-1,-8.79214E-3,1.7042225E-2,-5.2078422E-2,2.3825945E-2,2.3121657E-2,4.345351E-2,-6.0064707E-2,4.1840907E-2,-2.723786E-1,8.941776E-2,-8.644225E-2,3.0315936E-2,1.2296304E-1,6.548129E-2,8.785861E-2,-5.6698408E-2,1.2963182E-1,-5.7440434E-2,-8.9749984E-2,-4.5114774E-3,-1.1032736E-1,7.567104E-2,2.463029E-2,1.2539959E-1,-1.6944465E-1,1.0506979E-1,-2.2571424E-1,3.4827784E-2,-2.5563398E-1,2.7953563E-2,1.2080021E-1,-1.9602995E-1,1.6111125E-1,4.3387562E-2,5.015568E-2,1.402794E-1,-2.9642135E-1,6.6300325E-2,1.2002646E-1,-1.20014705E-1,-1.7789574E-1,4.6518978E-2,1.0598849E-1,-8.385109E-2,1.4300647E-2,-2.5971538E-1,1.0982599E-1,-1.263242E-1],"split_indices":[126,209,372,472,106,492,496,504,405,22,486,16,110,430,367,69,481,384,118,469,438,234,109,402,54,93,432,233,128,492,131,366,366,311,491,357,118,507,46,209,48,459,136,367,473,429,419,491,22,377,122,471,156,355,202,279,124,61,93,11,296,156,181,0,0,0,0,0,0,0,0,0,0,0,0,0,0,0,0,0,0,0,0,0,0,0,0,0,0,0,0,0,0,0,0,0,0,0,0,0,0,0,0,0,0,0,0,0,0,0,0,0,0,0,0,0,0,0,0,0,0,0,0,0,0,0,0],"split_type":[0,0,0,0,0,0,0,0,0,0,0,0,0,0,0,0,0,0,0,0,0,0,0,0,0,0,0,0,0,0,0,0,0,0,0,0,0,0,0,0,0,0,0,0,0,0,0,0,0,0,0,0,0,0,0,0,0,0,0,0,0,0,0,0,0,0,0,0,0,0,0,0,0,0,0,0,0,0,0,0,0,0,0,0,0,0,0,0,0,0,0,0,0,0,0,0,0,0,0,0,0,0,0,0,0,0,0,0,0,0,0,0,0,0,0,0,0,0,0,0,0,0,0,0,0,0,0],"sum_hessian":[4.3011388E5,4.2171584E5,8.398035E3,9.36741E4,3.2804175E5,1.5764982E3,6.8215366E3,5.0887844E4,4.2786258E4,3.2391628E5,4.125467E3,1.0258787E3,5.5061957E2,4.402293E3,2.4192434E3,2.2892213E4,2.799563E4,3.3751918E4,9.034341E3,2.1011886E5,1.1379741E5,7.2394257E2,3.4015242E3,6.868674E2,3.3901132E2,4.936736E1,5.0125217E2,1.1528545E3,3.2494385E3,2.1994827E3,2.1976082E2,2.1241582E4,1.6506295E3,1.3839156E4,1.4156474E4,1.4477245E3,3.2304195E4,8.889966E3,1.443749E2,7.6318266E4,1.338006E5,1.101585E5,3.6389094E3,3.432313E2,3.8071124E2,3.0240823E3,3.7744174E2,1.339696E2,5.5289777E2,1.0523414E2,2.3377716E2,2.482695E1,2.4540407E1,1.5878976E1,4.853732E2,3.0979193E2,8.4306256E2,1.1681534E1,3.237757E3,3.3406723E1,2.166076E3,1.05970345E2,1.13790474E2,1.9648291E4,1.5932922E3,1.5406096E3,1.10019936E2,8.23148E2,1.3016009E4,2.1882703E3,1.1968203E4,7.1948627E2,7.2823816E2,3.1639098E4,6.6509595E2,8.160381E3,7.295846E2,8.464293E0,1.359106E2,4.778069E4,2.8537574E4,3.1145283E3,1.3068607E5,5.1584945E4,5.857355E4,2.7717454E3,8.67164E2,3.865902E0,3.393654E2,6.1892086E1,3.1881918E2,2.7498862E3,2.7419604E2,3.1340167E2,6.404009E1,1.0175339E2,3.221622E1,1.5557568E2,3.9732208E2,4.0672688E1,6.4561455E1,7.032058E1,1.6345659E2,8.304568E0,1.6522383E1,2.1019295E1,3.521113E0,5.704402E0,1.0174574E1,4.817331E2,3.6401036E0,3.054784E2,4.3135424E0,6.6119976E0,8.364506E2,3.6130884E0,8.068445E0,3.2327576E3,4.999476E0,8.646199E0,2.4760525E1,2.1553296E3,1.0746288E1,9.470087E1,1.1269479E1,1.0840742E2,5.383056E0],"tree_param":{"num_deleted":"0","num_feature":"514","num_nodes":"127","size_leaf_vector":"0"}},{"base_weights":[1.2260587E-1,1.09932065E-1,8.340759E-1,-3.3114903E-2,1.6988382E-1,3.589616E-1,9.296805E-1,-1.776173E-1,1.200749E-1,8.3318785E-2,2.615007E-1,4.845921E-1,-2.6715508E-1,9.5495033E-1,6.898013E-2,-1.1519799E-2,-2.7927506E-1,1.9941574E-1,-1.2220866E-1,1.3190287E-1,-9.343398E-2,1.979008E-1,3.5079867E-1,2.2977556E-1,7.5284356E-1,5.208295E-1,-7.611188E-1,7.219747E-1,1.0002031E0,-3.9461076E-1,8.62715E-1,3.2450058E-2,-7.0176125E-1,-4.1886273E-1,-1.8273476E-1,7.841112E-2,3.4166795E-1,-1.7581674E-1,5.501122E-1,5.8463827E-2,3.1956977E-1,-1.4004622E-1,3.9988428E-1,8.3071694E-2,3.5078353E-1,3.7222952E-1,-4.242823E-1,3.664771E-1,-4.858984E-1,1.8179554E-1,9.040874E-1,-1.9206011E0,7.759857E-1,-1.1324565E0,1.8741797E-1,4.8203224E-1,8.823489E-1,1.1787912E0,9.4190943E-1,-1.2272844E0,1.5206301E-1,-6.322918E-1,1.0474125E0,-2.934679E-1,9.824869E-2,-3.479626E-1,-8.360213E-1,-5.45446E-3,-4.8971957E-1,5.6383844E-2,-2.7415827E-1,9.7397834E-2,-7.990732E-1,1.9604197E-1,5.1566076E-1,-1.4500253E-1,-7.486039E-1,8.7927496E-1,1.1985532E-1,-3.9131704E-1,8.3194174E-2,6.465898E-1,2.9292187E-1,-2.5352674E-2,-3.9215332E-1,1.4806369E-1,7.365467E-1,5.0416654E-1,5.3466283E-2,2.7882284E-1,4.5863083E-1,3.265398E-1,7.008375E-1,-1.3561315E-2,-6.180545E-1,-3.6657977E-1,4.8944768E-1,-8.6777136E-2,-1.7169161E0,-8.8053125E-1,4.8759866E-1,-4.2244655E-1,9.4320375E-1,-1.4435127E0,9.2068785E-1,-7.101267E-1,-1.6503402E0,-1.17847E0,7.39385E-1,-1.0901761E0,5.496294E-1,8.9990586E-1,-3.288107E-1,1.1900126E0,8.374114E-1,8.246833E-1,1.0010644E0,-2.7013648E0,-7.432738E-1,-2.4940379E0,3.8991243E-1,2.8066263E-1,-1.3090664E0,1.121808E0,1.5512381E-1],"categories":[],"categories_nodes":[],"categories_segments":[],"categories_sizes":[],"default_left":[1,1,1,1,1,0,0,0,0,1,0,1,0,0,1,1,0,0,1,0,1,1,0,1,0,0,0,1,0,0,0,0,1,0,0,1,0,1,0,0,0,0,0,0,0,1,0,0,0,0,0,0,0,0,0,0,0,1,1,0,1,0,1,0,0,0,0,0,0,0,0,0,0,0,0,0,0,0,0,0,0,0,0,0,0,0,0,0,0,0,0,0,0,0,0,0,0,0,0,0,0,0,0,0,0,0,0,0,0,0,0,0,0,0,0,0,0,0,0,0,0,0,0,0,0],"id":11,"left_children":[1,3,5,7,9,11,13,15,17,19,21,23,25,27,29,31,33,35,37,39,41,43,45,47,49,51,53,55,57,59,61,63,65,67,69,71,73,75,77,79,81,83,85,87,89,91,93,95,97,99,101,-1,103,105,107,109,111,113,115,117,119,121,123,-1,-1,-1,-1,-1,-1,-1,-1,-1,-1,-1,-1,-1,-1,-1,-1,-1,-1,-1,-1,-1,-1,-1,-1,-1,-1,-1,-1,-1,-1,-1,-1,-1,-1,-1,-1,-1,-1,-1,-1,-1,-1,-1,-1,-1,-1,-1,-1,-1,-1,-1,-1,-1,-1,-1,-1,-1,-1,-1,-1,-1,-1],"loss_changes":[3.8489658E3,3.5967085E3,3.3901123E2,2.7418496E3,2.3438154E3,9.8697495E1,1.3518799E2,1.0762246E3,1.1557854E3,1.304938E3,8.153574E2,7.119226E1,8.215938E1,6.296924E1,6.6003365E1,7.344993E2,5.327439E2,7.796002E2,5.346859E2,1.6427476E3,7.534503E2,1.4721118E3,9.9217334E2,5.2701786E1,4.372528E1,5.2282078E1,4.58347E1,3.7523254E1,5.152588E1,5.177809E1,1.891669E1,4.8794504E2,6.8554016E1,4.735044E2,5.110251E2,4.0784995E2,5.273865E2,2.423648E2,1.5505615E2,9.529806E2,2.9196045E2,8.6559393E2,2.397096E2,5.969983E2,2.7901318E2,8.723159E2,1.2791324E2,4.0864853E1,4.2365963E1,3.540415E1,2.1232574E1,0E0,2.5266167E1,1.9218315E1,2.8992094E1,4.2821228E1,1.2839478E1,3.7545166E0,2.5641846E1,3.0119133E1,4.459348E1,5.244124E0,3.7569122E0,0E0,0E0,0E0,0E0,0E0,0E0,0E0,0E0,0E0,0E0,0E0,0E0,0E0,0E0,0E0,0E0,0E0,0E0,0E0,0E0,0E0,0E0,0E0,0E0,0E0,0E0,0E0,0E0,0E0,0E0,0E0,0E0,0E0,0E0,0E0,0E0,0E0,0E0,0E0,0E0,0E0,0E0,0E0,0E0,0E0,0E0,0E0,0E0,0E0,0E0,0E0,0E0,0E0,0E0,0E0,0E0,0E0,0E0,0E0,0E0,0E0,0E0],"parents":[2147483647,0,0,1,1,2,2,3,3,4,4,5,5,6,6,7,7,8,8,9,9,10,10,11,11,12,12,13,13,14,14,15,15,16,16,17,17,18,18,19,19,20,20,21,21,22,22,23,23,24,24,25,25,26,26,27,27,28,28,29,29,30,30,31,31,32,32,33,33,34,34,35,35,36,36,37,37,38,38,39,39,40,40,41,41,42,42,43,43,44,44,45,45,46,46,47,47,48,48,49,49,50,50,52,52,53,53,54,54,55,55,56,56,57,57,58,58,59,59,60,60,61,61,62,62],"right_children":[2,4,6,8,10,12,14,16,18,20,22,24,26,28,30,32,34,36,38,40,42,44,46,48,50,52,54,56,58,60,62,64,66,68,70,72,74,76,78,80,82,84,86,88,90,92,94,96,98,100,102,-1,104,106,108,110,112,114,116,118,120,122,124,-1,-1,-1,-1,-1,-1,-1,-1,-1,-1,-1,-1,-1,-1,-1,-1,-1,-1,-1,-1,-1,-1,-1,-1,-1,-1,-1,-1,-1,-1,-1,-1,-1,-1,-1,-1,-1,-1,-1,-1,-1,-1,-1,-1,-1,-1,-1,-1,-1,-1,-1,-1,-1,-1,-1,-1,-1,-1,-1,-1,-1,-1],"split_conditions":[6.6665E-1,2.5E0,1.545E2,6.922165E5,1.5204999E-1,4.8043E1,2.031286E7,1.38985E1,6.6275E-1,6.17105E4,7.64131E5,8.0135E-1,9.1104996E-1,6.602E3,9.9995E-1,1.45E1,6.2766E4,4.5500003E-2,4.2285E-1,4.7235E3,2.1004999E-1,1.15E1,6.85E1,7.6215005E-1,4.726E3,8.874E1,1.02045E0,7.983E-1,2.0209E1,1.5E0,4.0589E0,1.1714001E1,1.18E2,4.22812E3,1.45E1,9.5E0,7.3835003E-1,3.39115E4,5.348E-1,1.2676001E1,2.4594E4,8.455E-1,1.9995E0,2.15E1,4.972105E5,3.2085E-1,8.6285E-1,1.5E0,8.0775E-1,2.806815E1,1.75E-2,-2.3047213E-1,2.075E0,1.0268801E1,2.1285E3,9E0,9.9E2,1.975E0,8.0865E-1,6.037E-1,5.681E-1,2.05E0,9.4122505E0,-3.521615E-2,1.17898425E-2,-4.175551E-2,-1.0032255E-1,-6.545352E-4,-5.8766346E-2,6.7660613E-3,-3.2898992E-2,1.168774E-2,-9.5888786E-2,2.3525037E-2,6.187929E-2,-1.7400304E-2,-8.983246E-2,1.0551299E-1,1.4382638E-2,-4.6958044E-2,9.9833E-3,7.759078E-2,3.5150625E-2,-3.0423207E-3,-4.7058396E-2,1.7767642E-2,8.8385604E-2,6.0499985E-2,6.415954E-3,3.345874E-2,5.50357E-2,3.9184775E-2,8.41005E-2,-1.6273578E-3,-7.416654E-2,-4.3989573E-2,5.873372E-2,-1.04132565E-2,-2.0602992E-1,-1.0566375E-1,5.851184E-2,-5.0693586E-2,1.13184445E-1,-1.7322151E-1,1.1048254E-1,-8.52152E-2,-1.9804081E-1,-1.414164E-1,8.87262E-2,-1.3082112E-1,6.595553E-2,1.079887E-1,-3.9457284E-2,1.4280151E-1,1.0048936E-1,9.8961994E-2,1.2012773E-1,-3.2416376E-1,-8.919285E-2,-2.9928455E-1,4.678949E-2,3.3679515E-2,-1.5708797E-1,1.3461696E-1,1.8614857E-2],"split_indices":[132,216,372,447,132,496,442,504,405,471,441,130,10,395,110,34,481,458,126,422,138,221,41,130,359,75,171,128,476,223,166,476,428,500,21,27,404,431,408,477,358,404,163,366,358,140,233,321,386,155,463,0,269,165,478,143,372,78,126,387,126,79,180,0,0,0,0,0,0,0,0,0,0,0,0,0,0,0,0,0,0,0,0,0,0,0,0,0,0,0,0,0,0,0,0,0,0,0,0,0,0,0,0,0,0,0,0,0,0,0,0,0,0,0,0,0,0,0,0,0,0,0,0,0,0],"split_type":[0,0,0,0,0,0,0,0,0,0,0,0,0,0,0,0,0,0,0,0,0,0,0,0,0,0,0,0,0,0,0,0,0,0,0,0,0,0,0,0,0,0,0,0,0,0,0,0,0,0,0,0,0,0,0,0,0,0,0,0,0,0,0,0,0,0,0,0,0,0,0,0,0,0,0,0,0,0,0,0,0,0,0,0,0,0,0,0,0,0,0,0,0,0,0,0,0,0,0,0,0,0,0,0,0,0,0,0,0,0,0,0,0,0,0,0,0,0,0,0,0,0,0,0,0],"sum_hessian":[4.2686434E5,4.193946E5,7.469749E3,1.23860234E5,2.9553438E5,1.2521001E3,6.217649E3,6.3737312E4,6.012292E4,1.5195767E5,1.4357669E5,1.0430399E3,2.0906023E2,6.0402017E3,1.7744727E2,2.4199363E4,3.953795E4,4.529146E4,1.4831463E4,1.1919481E5,3.2762861E4,8.385594E4,5.972075E4,5.358672E2,5.071727E2,8.053469E1,1.2852554E2,9.8517395E2,5.055028E3,1.123378E2,6.5109474E1,2.2751027E4,1.448336E3,1.6163624E4,2.3374326E4,2.4474316E4,2.0817145E4,1.373688E4,1.0945835E3,8.567085E4,3.352397E4,2.9935096E4,2.8277664E3,4.7888652E4,3.596728E4,5.8114418E4,1.6063323E3,4.5033603E2,8.553116E1,1.066602E2,4.005125E2,7.0027337E0,7.353195E1,9.222641E1,3.629913E1,3.962835E2,5.8889044E2,1.2392506E3,3.815777E3,4.4029167E1,6.830863E1,6.8928604E0,5.821661E1,3.8210251E3,1.8930002E4,3.9941077E2,1.0489253E3,2.365191E3,1.3798434E4,6.465132E3,1.6909195E4,2.3956836E4,5.17481E2,1.1333513E4,9.483632E3,1.3036793E4,7.000869E2,6.195561E2,4.750274E2,4.464179E3,8.120667E4,2.524185E3,3.0999783E4,2.0575557E4,9.359539E3,1.618547E3,1.2092195E3,3.1446365E3,4.4744016E4,2.157502E4,1.4392261E4,5.1022273E4,7.0921465E3,5.152579E2,1.0910745E3,6.440737E1,3.8592865E2,6.539821E1,2.0132952E1,2.3420507E1,8.32397E1,1.1191184E1,3.8932132E2,3.9511964E0,6.958076E1,5.210578E1,4.0120625E1,1.0120379E1,2.6178751E1,1.5712269E1,3.8057126E2,5.807292E2,8.16125E0,1.1974055E3,4.184511E1,1.2847515E3,2.5310254E3,9.750942E0,3.4278225E1,4.8513246E0,6.3457306E1,3.1835773E0,3.7092829E0,5.3498863E1,4.7177463E0],"tree_param":{"num_deleted":"0","num_feature":"514","num_nodes":"125","size_leaf_vector":"0"}},{"base_weights":[1.096827E-1,-1.29186055E-2,1.7412694E-1,-1.174814E-1,1.09689176E-1,1.5860349E-1,8.068186E-1,-3.565982E-2,-2.2119178E-1,2.721065E-2,2.4647968E-1,-1.726879E-1,1.7923342E-1,4.4539666E-1,8.859633E-1,-3.9960328E-1,1.1585504E-2,-1.303563E-1,-3.8945815E-1,1.8815085E-1,-7.138453E-2,4.2546302E-1,3.5772868E-2,1.3019744E-1,-3.494369E-1,-3.075576E-1,1.8825573E-1,6.697449E-1,1.1586021E-2,7.8606135E-1,9.938615E-1,2.8591654E-1,-5.160215E-1,-1.9173222E-2,2.803965E-1,-2.611805E-1,9.110773E-3,4.9972868E-1,-4.1030532E-1,3.7075636E-1,6.0196597E-2,-1.7679101E-1,1.1188224E-1,2.8592467E-1,5.673145E-1,-9.601681E-2,2.1294308E-1,-1.04942575E-1,3.3202344E-1,-4.9499866E-1,9.452372E-2,2.686596E-1,-4.5741597E-1,1.808286E-1,7.342756E-1,7.044341E-1,-9.990687E-1,-6.8645316E-1,1.9252083E-1,8.168614E-1,2.2580062E-1,1.0117432E0,6.209124E-1,-8.195539E-1,3.6408672E-1,-3.7259722E-1,-9.144699E-1,-7.630822E-1,-8.852859E-3,-2.0008007E-1,3.6290407E-1,-1.491383E-1,-5.196835E-1,-1.1879047E-1,2.1487272E-1,5.9304905E-1,-2.0519743E0,-4.3938872E-1,1.7927279E-1,2.528741E-1,5.2048016E-1,-3.0070218E-1,1.23633064E-1,-2.8552493E-1,-9.970145E-3,2.3125675E-2,5.0869375E-1,1.0727212E-1,4.1175178E-1,5.92968E-1,-9.842675E-2,-2.5659405E-2,-3.552888E-1,-6.0697E-1,2.4019103E-1,3.7954962E-1,-1.9817182E-1,-4.8221597E-1,4.1924882E-1,6.155646E-1,-5.3812355E-1,1.2737696E0,3.4367476E-2,6.7248243E-1,5.2249406E-2,-5.308815E-1,5.250828E-2,1.5096799E-1,3.0080774E-1,2.2070049E-1,8.5628915E-1,1.8185093E-1,7.828922E-1,-2.39161E0,3.690662E-1,-1.1752923E0,5.998868E-1,6.4233243E-1,-8.8743314E-2,8.237644E-1,-3.7917356E0,-3.1846344E0,3.3437982E-1,1.0241946E0,6.1313874E-1,-2.065947E-1,7.4915105E-1],"categories":[],"categories_nodes":[],"categories_segments":[],"categories_sizes":[],"default_left":[1,0,1,0,1,1,0,0,0,0,0,0,1,0,0,0,1,0,0,0,1,0,1,0,1,0,0,1,0,1,1,0,1,0,0,0,0,0,1,1,0,1,0,1,1,0,0,0,1,0,0,0,0,1,0,0,0,0,0,1,0,0,0,0,0,0,0,0,0,0,0,0,0,0,0,0,0,0,0,0,0,0,0,0,0,0,0,0,0,0,0,0,0,0,0,0,0,0,0,0,0,0,0,0,0,0,0,0,0,0,0,0,0,0,0,0,0,0,0,0,0,0,0,0,0,0,0],"id":12,"left_children":[1,3,5,7,9,11,13,15,17,19,21,23,25,27,29,31,33,35,37,39,41,43,45,47,49,51,53,55,57,59,61,63,65,67,69,71,73,75,77,79,81,83,85,87,89,91,93,95,97,99,101,103,105,107,109,111,113,115,117,119,121,123,125,-1,-1,-1,-1,-1,-1,-1,-1,-1,-1,-1,-1,-1,-1,-1,-1,-1,-1,-1,-1,-1,-1,-1,-1,-1,-1,-1,-1,-1,-1,-1,-1,-1,-1,-1,-1,-1,-1,-1,-1,-1,-1,-1,-1,-1,-1,-1,-1,-1,-1,-1,-1,-1,-1,-1,-1,-1,-1,-1,-1,-1,-1,-1,-1],"loss_changes":[3.3472407E3,1.8713075E3,2.7271875E3,6.6849866E2,7.5799866E2,1.8524448E3,1.8982031E2,7.572272E2,5.3097437E2,6.651119E2,9.53062E2,8.506572E2,1.1206719E3,1.1645085E2,5.801123E1,4.0397107E2,3.2229745E2,4.1169946E2,2.2597693E2,3.7202728E2,5.0212738E2,2.7030884E2,2.7106647E2,2.779425E2,6.484835E2,4.0108023E2,1.0157666E3,4.6361115E1,5.177673E1,4.8767822E1,1.683374E1,6.3831383E1,2.4686609E2,2.6853378E2,1.5873636E2,3.371369E2,2.8746893E2,6.7763664E1,2.0414502E2,1.1565765E2,2.1441544E2,2.9932605E2,3.342751E2,1.5484784E2,1.157666E2,1.2143315E2,1.1077734E2,1.22279755E2,2.2402472E2,3.6224097E2,1.7577089E2,8.3772606E1,1.3808807E2,8.8539746E2,2.1044873E2,3.1560364E1,3.226876E1,5.37714E1,4.12397E1,8.865698E1,5.631693E1,1.1764893E1,1.3142323E1,0E0,0E0,0E0,0E0,0E0,0E0,0E0,0E0,0E0,0E0,0E0,0E0,0E0,0E0,0E0,0E0,0E0,0E0,0E0,0E0,0E0,0E0,0E0,0E0,0E0,0E0,0E0,0E0,0E0,0E0,0E0,0E0,0E0,0E0,0E0,0E0,0E0,0E0,0E0,0E0,0E0,0E0,0E0,0E0,0E0,0E0,0E0,0E0,0E0,0E0,0E0,0E0,0E0,0E0,0E0,0E0,0E0,0E0,0E0,0E0,0E0,0E0,0E0,0E0],"parents":[2147483647,0,0,1,1,2,2,3,3,4,4,5,5,6,6,7,7,8,8,9,9,10,10,11,11,12,12,13,13,14,14,15,15,16,16,17,17,18,18,19,19,20,20,21,21,22,22,23,23,24,24,25,25,26,26,27,27,28,28,29,29,30,30,31,31,32,32,33,33,34,34,35,35,36,36,37,37,38,38,39,39,40,40,41,41,42,42,43,43,44,44,45,45,46,46,47,47,48,48,49,49,50,50,51,51,52,52,53,53,54,54,55,55,56,56,57,57,58,58,59,59,60,60,61,61,62,62],"right_children":[2,4,6,8,10,12,14,16,18,20,22,24,26,28,30,32,34,36,38,40,42,44,46,48,50,52,54,56,58,60,62,64,66,68,70,72,74,76,78,80,82,84,86,88,90,92,94,96,98,100,102,104,106,108,110,112,114,116,118,120,122,124,126,-1,-1,-1,-1,-1,-1,-1,-1,-1,-1,-1,-1,-1,-1,-1,-1,-1,-1,-1,-1,-1,-1,-1,-1,-1,-1,-1,-1,-1,-1,-1,-1,-1,-1,-1,-1,-1,-1,-1,-1,-1,-1,-1,-1,-1,-1,-1,-1,-1,-1,-1,-1,-1,-1,-1,-1,-1,-1,-1,-1,-1,-1,-1,-1],"split_conditions":[9.295E-2,4.45E-2,8.0285E-1,1.98445E1,7.65E1,2.5725E-1,1.1427E4,4.7235E-1,1.1504E4,5.85E1,7.95E1,1.5E0,2.1850001E-2,3.886E3,5.45E1,2.7786E4,1.1355E3,8.87E2,1.1759E4,9.5E0,5.481E3,4.727865E5,1.5E0,3.25E-2,2.775E0,7.5810003E-1,6.6665E-1,7.365E0,1.5E0,5.5E0,1.012E1,2.5E0,9.122E-1,2.064E-1,3.3615E2,2.4229E1,7.262E-1,3.9305E3,1.6887E0,4.905E-2,6.5E0,5.615E-2,2.09E2,